{"learner":{"attributes":{"scikit_learn":"{\"_estimator_type\": \"classifier\"}"},"feature_names":["bill_length_mm","bill_depth_mm","flipper_length_mm","body_mass_g","year","sex_Female","sex_Male","island_Biscoe","island_Dream","island_Torgensen"],"feature_types":["float","float","float","float","int","i","i","i","i","int"],"gradient_booster":{"model":{"gbtree_model_param":{"num_parallel_tree":"1","num_trees":"300"},"iteration_indptr":[0,3,6,9,12,15,18,21,24,27,30,33,36,39,42,45,48,51,54,57,60,63,66,69,72,75,78,81,84,87,90,93,96,99,102,105,108,111,114,117,120,123,126,129,132,135,138,141,144,147,150,153,156,159,162,165,168,171,174,177,180,183,186,189,192,195,198,201,204,207,210,213,216,219,222,225,228,231,234,237,240,243,246,249,252,255,258,261,264,267,270,273,276,279,282,285,288,291,294,297,300],"tree_info":[0,1,2,0,1,2,0,1,2,0,1,2,0,1,2,0,1,2,0,1,2,0,1,2,0,1,2,0,1,2,0,1,2,0,1,2,0,1,2,0,1,2,0,1,2,0,1,2,0,1,2,0,1,2,0,1,2,0,1,2,0,1,2,0,1,2,0,1,2,0,1,2,0,1,2,0,1,2,0,1,2,0,1,2,0,1,2,0,1,2,0,1,2,0,1,2,0,1,2,0,1,2,0,1,2,0,1,2,0,1,2,0,1,2,0,1,2,0,1,2,0,1,2,0,1,2,0,1,2,0,1,2,0,1,2,0,1,2,0,1,2,0,1,2,0,1,2,0,1,2,0,1,2,0,1,2,0,1,2,0,1,2,0,1,2,0,1,2,0,1,2,0,1,2,0,1,2,0,1,2,0,1,2,0,1,2,0,1,2,0,1,2,0,1,2,0,1,2,0,1,2,0,1,2,0,1,2,0,1,2,0,1,2,0,1,2,0,1,2,0,1,2,0,1,2,0,1,2,0,1,2,0,1,2,0,1,2,0,1,2,0,1,2,0,1,2,0,1,2,0,1,2,0,1,2,0,1,2,0,1,2,0,1,2,0,1,2,0,1,2,0,1,2,0,1,2,0,1,2,0,1,2,0,1,2,0,1,2,0,1,2,0,1,2,0,1,2,0,1,2],"trees":[{"base_weights":[2.3765141E-1,1.410596E0,-6.104929E-1,-2.5544848E-9,1.4489797E-1,-3.0927876E-2,-7.0425147E-1,1.1351352E-1,-6.52174E-2,-7.202269E-2,-2.5544848E-9],"categories":[],"categories_nodes":[],"categories_segments":[],"categories_sizes":[],"default_left":[0,0,0,0,0,0,0,0,0,0,0],"id":0,"left_children":[1,3,5,-1,-1,7,9,-1,-1,-1,-1],"loss_changes":[1.1946656E2,2.725235E0,3.7759247E0,0E0,0E0,8.547857E0,6.762943E-1,0E0,0E0,0E0,0E0],"parents":[2147483647,0,0,1,1,2,2,5,5,6,6],"right_children":[2,4,6,-1,-1,8,10,-1,-1,-1,-1],"split_conditions":[4.24E1,1.6E1,4.44E1,-2.5544848E-9,1.4489797E-1,1E0,2.01E1,1.1351352E-1,-6.52174E-2,-7.202269E-2,-2.5544848E-9],"split_indices":[0,1,0,0,0,5,1,0,0,0,0],"split_type":[0,0,0,0,0,0,0,0,0,0,0],"sum_hessian":[1.1822221E2,4.9333332E1,6.8888885E1,1.3333333E0,4.7999996E1,9.777777E0,5.9111107E1,3.111111E0,6.666666E0,5.7777775E1,1.3333333E0],"tree_param":{"num_deleted":"0","num_feature":"10","num_nodes":"11","size_leaf_vector":"1"}},{"base_weights":[-2.9077357E-1,-7.400297E-2,4.6666664E-1,-6.648649E-1,1.3624454E0,-2.5544848E-9,-7.1098275E-2,5.454545E-2,1.4341463E-1],"categories":[],"categories_nodes":[],"categories_segments":[],"categories_sizes":[],"default_left":[0,0,0,0,0,0,0,0,0],"id":1,"left_children":[1,-1,3,5,7,-1,-1,-1,-1],"loss_changes":[4.0914825E1,0E0,4.6517925E1,6.302757E-1,7.0824814E-1,0E0,0E0,0E0,0E0],"parents":[2147483647,0,0,2,2,3,3,4,4],"right_children":[2,-1,4,6,8,-1,-1,-1,-1],"split_conditions":[1E0,-7.400297E-2,4.24E1,1.69E1,4.44E1,-2.5544848E-9,-7.1098275E-2,5.454545E-2,1.4341463E-1],"split_indices":[8,0,0,1,0,0,0,0,0],"split_type":[0,0,0,0,0,0,0,0,0],"sum_hessian":[1.1822221E2,7.422222E1,4.3999996E1,1.9555553E1,2.4444443E1,1.3333333E0,1.8222221E1,2.6666665E0,2.1777777E1],"tree_param":{"num_deleted":"0","num_feature":"10","num_nodes":"9","size_leaf_vector":"1"}},{"base_weights":[5.3122044E-2,-7.399104E-2,1.3365617E0,1.4652957E-1,-5.454546E-2],"categories":[],"categories_nodes":[],"categories_segments":[],"categories_sizes":[],"default_left":[0,0,0,0,0],"id":2,"left_children":[1,-1,3,-1,-1],"loss_changes":[1.2233441E2,0E0,1.1917175E1,0E0,0E0],"parents":[2147483647,0,0,2,2],"right_children":[2,-1,4,-1,-1],"split_conditions":[2.08E2,-7.399104E-2,1.75E1,1.4652957E-1,-5.454546E-2],"split_indices":[2,0,1,0,0],"split_type":[0,0,0,0,0],"sum_hessian":[1.1822221E2,7.333333E1,4.4888885E1,4.222222E1,2.6666665E0],"tree_param":{"num_deleted":"0","num_feature":"10","num_nodes":"5","size_leaf_vector":"1"}},{"base_weights":[2.1844266E-1,1.2291046E0,-5.8374465E-1,1.2614946E-1,-1.2331413E-3,-2.7219523E-2,-6.767959E-1,1.0308186E-1,-6.299191E-2,-6.927915E-2,1.3691066E-4],"categories":[],"categories_nodes":[],"categories_segments":[],"categories_sizes":[],"default_left":[0,0,0,0,0,0,0,0,0,0,0],"id":3,"left_children":[1,3,5,-1,-1,7,9,-1,-1,-1,-1],"loss_changes":[9.793741E1,2.1621475E0,3.4786701E0,0E0,0E0,7.4824433E0,6.2810135E-1,0E0,0E0,0E0,0E0],"parents":[2147483647,0,0,1,1,2,2,5,5,6,6],"right_children":[2,4,6,-1,-1,8,10,-1,-1,-1,-1],"split_conditions":[4.24E1,2.07E2,4.44E1,1.2614946E-1,-1.2331413E-3,1E0,2.01E1,1.0308186E-1,-6.299191E-2,-6.927915E-2,1.3691066E-4],"split_indices":[0,2,0,0,0,5,1,0,0,0,0],"split_type":[0,0,0,0,0,0,0,0,0,0,0],"sum_hessian":[1.18915016E2,5.23845E1,6.653052E1,5.103675E1,1.3477479E0,9.715595E0,5.6814922E1,3.268106E0,6.4474893E0,5.548467E1,1.3302556E0],"tree_param":{"num_deleted":"0","num_feature":"10","num_nodes":"11","size_leaf_vector":"1"}},{"base_weights":[-2.73552E-1,-7.128769E-2,4.2663646E-1,-6.374727E-1,1.19492E0,1.1849868E-3,-6.842487E-2,5.0047576E-2,1.2531166E-1],"categories":[],"categories_nodes":[],"categories_segments":[],"categories_sizes":[],"default_left":[0,0,0,0,0,0,0,0,0],"id":4,"left_children":[1,-1,3,5,7,-1,-1,-1,-1],"loss_changes":[3.6272892E1,0E0,3.8128372E1,6.099682E-1,4.5960617E-1,0E0,0E0,0E0,0E0],"parents":[2147483647,0,0,2,2,3,3,4,4],"right_children":[2,-1,4,6,8,-1,-1,-1,-1],"split_conditions":[1E0,-7.128769E-2,4.24E1,1.69E1,4.44E1,1.1849868E-3,-6.842487E-2,5.0047576E-2,1.2531166E-1],"split_indices":[8,0,0,1,0,0,0,0,0],"split_type":[0,0,0,0,0,0,0,0,0],"sum_hessian":[1.1592963E2,7.12233E1,4.4706333E1,1.8815807E1,2.5890526E1,1.3145472E0,1.750126E1,2.7442224E0,2.3146303E1],"tree_param":{"num_deleted":"0","num_feature":"10","num_nodes":"9","size_leaf_vector":"1"}},{"base_weights":[4.871451E-2,-7.1300216E-2,1.1691512E0,1.2754373E-1,-5.2327942E-2],"categories":[],"categories_nodes":[],"categories_segments":[],"categories_sizes":[],"default_left":[0,0,0,0,0],"id":5,"left_children":[1,-1,3,-1,-1],"loss_changes":[1.0230281E2,0E0,9.390793E0,0E0,0E0],"parents":[2147483647,0,0,2,2],"right_children":[2,-1,4,-1,-1],"split_conditions":[2.08E2,-7.1300216E-2,1.75E1,1.2754373E-1,-5.2327942E-2],"split_indices":[2,0,1,0,0],"split_type":[0,0,0,0,0],"sum_hessian":[1.1789224E2,7.039715E1,4.7495094E1,4.492044E1,2.5746536E0],"tree_param":{"num_deleted":"0","num_feature":"10","num_nodes":"5","size_leaf_vector":"1"}},{"base_weights":[2.0281643E-1,1.0948045E0,-5.596956E-1,-1.0465019E-3,1.1224621E-1,-2.3802593E-2,-6.521384E-1,9.4607286E-2,-6.0940266E-2,-6.682586E-2,2.825958E-4],"categories":[],"categories_nodes":[],"categories_segments":[],"categories_sizes":[],"default_left":[0,0,0,0,0,0,0,0,0,0,0],"id":6,"left_children":[1,3,5,-1,-1,7,9,-1,-1,-1,-1],"loss_changes":[8.1697205E1,1.7016449E0,3.201271E0,0E0,0E0,6.591902E0,5.8621025E-1,0E0,0E0,0E0,0E0],"parents":[2147483647,0,0,1,1,2,2,5,5,6,6],"right_children":[2,4,6,-1,-1,8,10,-1,-1,-1,-1],"split_conditions":[4.24E1,1.6E1,4.44E1,-1.0465019E-3,1.1224621E-1,1E0,2.01E1,9.4607286E-2,-6.0940266E-2,-6.682586E-2,2.825958E-4],"split_indices":[0,1,0,0,0,5,1,0,0,0,0],"split_type":[0,0,0,0,0,0,0,0,0,0,0],"sum_hessian":[1.1821525E2,5.4281204E1,6.3934048E1,1.3403139E0,5.2940887E1,9.59119E0,5.4342857E1,3.379114E0,6.212076E0,5.301767E1,1.3251852E0],"tree_param":{"num_deleted":"0","num_feature":"10","num_nodes":"11","size_leaf_vector":"1"}},{"base_weights":[-2.5875807E-1,-6.8881474E-2,3.9403623E-1,-6.1285764E-1,1.0690023E0,2.382712E-3,-6.606761E-2,4.609373E-2,1.11878805E-1],"categories":[],"categories_nodes":[],"categories_segments":[],"categories_sizes":[],"default_left":[0,0,0,0,0,0,0,0,0],"id":7,"left_children":[1,-1,3,5,7,-1,-1,-1,-1],"loss_changes":[3.2228436E1,0E0,3.1812103E1,5.9524107E-1,3.2622147E-1,0E0,0E0,0E0,0E0],"parents":[2147483647,0,0,2,2,3,3,4,4],"right_children":[2,-1,4,6,8,-1,-1,-1,-1],"split_conditions":[1E0,-6.8881474E-2,4.24E1,1.69E1,4.44E1,2.382712E-3,-6.606761E-2,4.609373E-2,1.11878805E-1],"split_indices":[8,0,0,1,0,0,0,0,0],"split_type":[0,0,0,0,0,0,0,0,0],"sum_hessian":[1.1283197E2,6.7987236E1,4.484473E1,1.8034071E1,2.6810661E1,1.2948864E0,1.6739183E1,2.8053646E0,2.4005297E1],"tree_param":{"num_deleted":"0","num_feature":"10","num_nodes":"9","size_leaf_vector":"1"}},{"base_weights":[4.4974945E-2,-6.891646E-2,1.0442616E0,1.1359352E-1,-5.0534178E-2],"categories":[],"categories_nodes":[],"categories_segments":[],"categories_sizes":[],"default_left":[0,0,0,0,0],"id":8,"left_children":[1,-1,3,-1,-1],"loss_changes":[8.678201E1,0E0,7.68853E0,0E0,0E0],"parents":[2147483647,0,0,2,2],"right_children":[2,-1,4,-1,-1],"split_conditions":[2.08E2,-6.891646E-2,1.75E1,1.1359352E-1,-5.0534178E-2],"split_indices":[2,0,1,0,0],"split_type":[0,0,0,0,0],"sum_hessian":[1.1631255E2,6.723084E1,4.908171E1,4.659229E1,2.489421E0],"tree_param":{"num_deleted":"0","num_feature":"10","num_nodes":"5","size_leaf_vector":"1"}},{"base_weights":[1.8992664E-1,9.918862E-1,-5.379761E-1,1.016918E-1,-1.9237687E-3,-2.0616356E-2,-6.299095E-1,8.762164E-2,-5.904566E-2,-6.462505E-2,4.3213528E-4],"categories":[],"categories_nodes":[],"categories_segments":[],"categories_sizes":[],"default_left":[0,0,0,0,0,0,0,0,0,0,0],"id":9,"left_children":[1,3,5,-1,-1,7,9,-1,-1,-1,-1],"loss_changes":[6.903356E1,1.4415894E0,2.9435577E0,0E0,0E0,5.83896E0,5.494671E-1,0E0,0E0,0E0,0E0],"parents":[2147483647,0,0,1,1,2,2,5,5,6,6],"right_children":[2,4,6,-1,-1,8,10,-1,-1,-1,-1],"split_conditions":[4.24E1,2.07E2,4.44E1,1.016918E-1,-1.9237687E-3,1E0,2.01E1,8.762164E-2,-5.904566E-2,-6.462505E-2,4.3213528E-4],"split_indices":[0,2,0,0,0,5,1,0,0,0,0],"split_type":[0,0,0,0,0,0,0,0,0,0,0],"sum_hessian":[1.1634496E2,5.518394E1,6.116102E1,5.38452E1,1.3387413E0,9.413029E0,5.174799E1,3.4483123E0,5.9647164E0,5.042972E1,1.3182675E0],"tree_param":{"num_deleted":"0","num_feature":"10","num_nodes":"11","size_leaf_vector":"1"}},{"base_weights":[-2.4594678E-1,-6.676231E-2,3.6776057E-1,-5.8990735E-1,9.712679E-1,3.5830296E-3,-6.3913636E-2,4.259124E-2,1.0156771E-1],"categories":[],"categories_nodes":[],"categories_segments":[],"categories_sizes":[],"default_left":[0,0,0,0,0,0,0,0,0],"id":10,"left_children":[1,-1,3,5,7,-1,-1,-1,-1],"loss_changes":[2.8734348E1,0E0,2.6858131E1,5.8363914E-1,2.5222397E-1,0E0,0E0,0E0,0E0],"parents":[2147483647,0,0,2,2,3,3,4,4],"right_children":[2,-1,4,6,8,-1,-1,-1,-1],"split_conditions":[1E0,-6.676231E-2,4.24E1,1.69E1,4.44E1,3.5830296E-3,-6.3913636E-2,4.259124E-2,1.0156771E-1],"split_indices":[8,0,0,1,0,0,0,0,0],"split_type":[0,0,0,0,0,0,0,0,0],"sum_hessian":[1.0908647E2,6.460721E1,4.4479256E1,1.7203167E1,2.727609E1,1.274573E0,1.5928594E1,2.8513598E0,2.442473E1],"tree_param":{"num_deleted":"0","num_feature":"10","num_nodes":"9","size_leaf_vector":"1"}},{"base_weights":[4.174796E-2,-6.6818275E-2,9.487664E-1,1.0296606E-1,-4.860891E-2],"categories":[],"categories_nodes":[],"categories_segments":[],"categories_sizes":[],"default_left":[0,0,0,0,0],"id":11,"left_children":[1,-1,3,-1,-1],"loss_changes":[7.4491554E1,0E0,6.393791E0,0E0,0E0],"parents":[2147483647,0,0,2,2],"right_children":[2,-1,4,-1,-1],"split_conditions":[2.08E2,-6.6818275E-2,1.75E1,1.0296606E-1,-4.860891E-2],"split_indices":[2,0,1,0,0],"split_type":[0,0,0,0,0],"sum_hessian":[1.1369994E2,6.3927048E1,4.97729E1,4.738389E1,2.3890114E0],"tree_param":{"num_deleted":"0","num_feature":"10","num_nodes":"5","size_leaf_vector":"1"}},{"base_weights":[1.7915042E-1,9.107617E-1,-5.18262E-1,-1.8176719E-3,9.3352474E-2,-1.7616743E-2,-6.0978276E-1,8.178822E-2,-5.729186E-2,-6.2643334E-2,5.8288965E-4],"categories":[],"categories_nodes":[],"categories_segments":[],"categories_sizes":[],"default_left":[0,0,0,0,0,0,0,0,0,0,0],"id":12,"left_children":[1,3,5,-1,-1,7,9,-1,-1,-1,-1],"loss_changes":[5.8905804E1,1.2064819E0,2.7049437E0,0E0,0E0,5.1962605E0,5.169792E-1,0E0,0E0,0E0,0E0],"parents":[2147483647,0,0,1,1,2,2,5,5,6,6],"right_children":[2,4,6,-1,-1,8,10,-1,-1,-1,-1],"split_conditions":[4.24E1,1.6E1,4.44E1,-1.8176719E-3,9.3352474E-2,1E0,2.01E1,8.178822E-2,-5.729186E-2,-6.2643334E-2,5.8288965E-4],"split_indices":[0,1,0,0,0,5,1,0,0,0,0],"split_type":[0,0,0,0,0,0,0,0,0,0,0],"sum_hessian":[1.1352333E2,5.525397E1,5.8269363E1,1.3263944E0,5.3927578E1,9.189974E0,4.9079388E1,3.480462E0,5.709512E0,4.776977E1,1.3096162E0],"tree_param":{"num_deleted":"0","num_feature":"10","num_nodes":"11","size_leaf_vector":"1"}},{"base_weights":[-2.3475283E-1,-6.487501E-2,3.4564605E-1,-5.690336E-1,8.934562E-1,4.779941E-3,-6.2001478E-2,3.9466348E-2,9.3442515E-2],"categories":[],"categories_nodes":[],"categories_segments":[],"categories_sizes":[],"default_left":[0,0,0,0,0,0,0,0,0],"id":13,"left_children":[1,-1,3,5,7,-1,-1,-1,-1],"loss_changes":[2.5656567E1,0E0,2.2915318E1,5.755892E-1,2.1069145E-1,0E0,0E0,0E0,0E0],"parents":[2147483647,0,0,2,2,3,3,4,4],"right_children":[2,-1,4,6,8,-1,-1,-1,-1],"split_conditions":[1E0,-6.487501E-2,4.24E1,1.69E1,4.44E1,4.779941E-3,-6.2001478E-2,3.9466348E-2,9.3442515E-2],"split_indices":[8,0,0,1,0,0,0,0,0],"split_type":[0,0,0,0,0,0,0,0,0],"sum_hessian":[1.04842995E2,6.1124943E1,4.371805E1,1.6361116E1,2.7356932E1,1.2537768E0,1.510734E1,2.883523E0,2.4473408E1],"tree_param":{"num_deleted":"0","num_feature":"10","num_nodes":"9","size_leaf_vector":"1"}},{"base_weights":[3.8918182E-2,-6.494974E-2,8.7298095E-1,9.464185E-2,-4.7034543E-2],"categories":[],"categories_nodes":[],"categories_segments":[],"categories_sizes":[],"default_left":[0,0,0,0,0],"id":14,"left_children":[1,-1,3,-1,-1],"loss_changes":[6.4450485E1,0E0,5.450161E0,0E0,0E0],"parents":[2147483647,0,0,2,2],"right_children":[2,-1,4,-1,-1],"split_conditions":[2.08E2,-6.494974E-2,1.75E1,9.464185E-2,-4.7034543E-2],"split_indices":[2,0,1,0,0],"split_type":[0,0,0,0,0],"sum_hessian":[1.10260025E2,6.0525227E1,4.97348E1,4.7436962E1,2.2978373E0],"tree_param":{"num_deleted":"0","num_feature":"10","num_nodes":"5","size_leaf_vector":"1"}},{"base_weights":[1.7004733E-1,8.4540844E-1,-5.00269E-1,8.66858E-2,-2.3728374E-3,-1.4771953E-2,-5.914681E-1,7.685847E-2,-5.5663165E-2,-6.0851086E-2,7.3135283E-4],"categories":[],"categories_nodes":[],"categories_segments":[],"categories_sizes":[],"default_left":[0,0,0,0,0,0,0,0,0,0,0],"id":15,"left_children":[1,3,5,-1,-1,7,9,-1,-1,-1,-1],"loss_changes":[5.065084E1,1.0578194E0,2.484559E0,0E0,0E0,4.6431165E0,4.8796272E-1,0E0,0E0,0E0,0E0],"parents":[2147483647,0,0,1,1,2,2,5,5,6,6],"right_children":[2,4,6,-1,-1,8,10,-1,-1,-1,-1],"split_conditions":[4.24E1,2.07E2,4.44E1,8.66858E-2,-2.3728374E-3,1E0,2.01E1,7.685847E-2,-5.5663165E-2,-6.0851086E-2,7.3135283E-4],"split_indices":[0,2,0,0,0,5,1,0,0,0,0],"split_type":[0,0,0,0,0,0,0,0,0,0,0],"sum_hessian":[1.099505E2,5.4639038E1,5.531146E1,5.332563E1,1.313409E0,8.930747E0,4.638071E1,3.480554E0,5.450193E0,4.5081345E1,1.2993685E0],"tree_param":{"num_deleted":"0","num_feature":"10","num_nodes":"11","size_leaf_vector":"1"}},{"base_weights":[-2.2490416E-1,-6.320562E-2,3.2743198E-1,-5.4931366E-1,8.301963E-1,5.9665414E-3,-6.0239594E-2,3.6660448E-2,8.69031E-2],"categories":[],"categories_nodes":[],"categories_segments":[],"categories_sizes":[],"default_left":[0,0,0,0,0,0,0,0,0],"id":16,"left_children":[1,-1,3,5,7,-1,-1,-1,-1],"loss_changes":[2.2973883E1,0E0,1.9682896E1,5.6927633E-1,1.8766403E-1,0E0,0E0,0E0,0E0],"parents":[2147483647,0,0,2,2,3,3,4,4],"right_children":[2,-1,4,6,8,-1,-1,-1,-1],"split_conditions":[1E0,-6.320562E-2,4.24E1,1.69E1,4.44E1,5.9665414E-3,-6.0239594E-2,3.6660448E-2,8.69031E-2],"split_indices":[8,0,0,1,0,0,0,0,0],"split_type":[0,0,0,0,0,0,0,0,0],"sum_hessian":[1.0023817E2,5.761972E1,4.261845E1,1.54986105E1,2.7119839E1,1.2326928E0,1.4265918E1,2.9031692E0,2.421667E1],"tree_param":{"num_deleted":"0","num_feature":"10","num_nodes":"9","size_leaf_vector":"1"}},{"base_weights":[3.6405653E-2,-6.32974E-2,8.1231606E-1,8.797806E-2,-4.532717E-2],"categories":[],"categories_nodes":[],"categories_segments":[],"categories_sizes":[],"default_left":[0,0,0,0,0],"id":17,"left_children":[1,-1,3,-1,-1],"loss_changes":[5.61824E1,0E0,4.674637E0,0E0,0E0],"parents":[2147483647,0,0,2,2],"right_children":[2,-1,4,-1,-1],"split_conditions":[2.08E2,-6.32974E-2,1.75E1,8.797806E-2,-4.532717E-2],"split_indices":[2,0,1,0,0],"split_type":[0,0,0,0,0],"sum_hessian":[1.0618236E2,5.7103374E1,4.9078987E1,4.6884563E1,2.1944265E0],"tree_param":{"num_deleted":"0","num_feature":"10","num_nodes":"5","size_leaf_vector":"1"}},{"base_weights":[1.622769E-1,7.917615E-1,-4.837469E-1,-2.4088162E-3,8.1209576E-1,-1.205516E-2,-5.74709E-1,3.8201902E-2,8.293816E-2,7.264706E-2,-5.4144945E-2,-5.922208E-2,8.757794E-4],"categories":[],"categories_nodes":[],"categories_segments":[],"categories_sizes":[],"default_left":[0,0,0,0,0,0,0,0,0,0,0,0,0],"id":18,"left_children":[1,3,5,-1,7,9,11,-1,-1,-1,-1,-1,-1],"loss_changes":[4.3818565E1,9.2331314E-1,2.281392E0,0E0,7.8517914E-2,4.1637197E0,4.618063E-1,0E0,0E0,0E0,0E0,0E0,0E0],"parents":[2147483647,0,0,1,1,2,2,4,4,5,5,6,6],"right_children":[2,4,6,-1,8,10,12,-1,-1,-1,-1,-1,-1],"split_conditions":[4.24E1,1.6E1,4.44E1,-2.4088162E-3,1.67E1,1E0,2.01E1,3.8201902E-2,8.293816E-2,7.264706E-2,-5.4144945E-2,-5.922208E-2,8.757794E-4],"split_indices":[0,1,0,0,1,5,1,0,0,0,0,0,0],"split_type":[0,0,0,0,0,0,0,0,0,0,0,0,0],"sum_hessian":[1.0580995E2,5.347672E1,5.2333233E1,1.2959535E0,5.2180767E1,8.643605E0,4.3689625E1,2.9087994E0,4.927197E1,3.4535291E0,5.190076E0,4.2401993E1,1.2876322E0],"tree_param":{"num_deleted":"0","num_feature":"10","num_nodes":"13","size_leaf_vector":"1"}},{"base_weights":[-2.1616077E-1,-6.1710726E-2,3.1169525E-1,-5.3112966E-1,7.7785134E-1,7.1387063E-3,-5.8662992E-2,3.412598E-2,8.154776E-2],"categories":[],"categories_nodes":[],"categories_segments":[],"categories_sizes":[],"default_left":[0,0,0,0,0,0,0,0,0],"id":19,"left_children":[1,-1,3,5,7,-1,-1,-1,-1],"loss_changes":[2.0593355E1,0E0,1.7022812E1,5.65197E-1,1.755333E-1,0E0,0E0,0E0,0E0],"parents":[2147483647,0,0,2,2,3,3,4,4],"right_children":[2,-1,4,6,8,-1,-1,-1,-1],"split_conditions":[1E0,-6.1710726E-2,4.24E1,1.69E1,4.44E1,7.1387063E-3,-5.8662992E-2,3.412598E-2,8.154776E-2],"split_indices":[8,0,0,1,0,0,0,0,0],"split_type":[0,0,0,0,0,0,0,0,0],"sum_hessian":[9.539393E1,5.411808E1,4.1275852E1,1.4649576E1,2.6626276E1,1.2114711E0,1.3438105E1,2.911598E0,2.3714678E1],"tree_param":{"num_deleted":"0","num_feature":"10","num_nodes":"9","size_leaf_vector":"1"}},{"base_weights":[3.4137983E-2,-6.1817646E-2,7.6218456E-1,8.254708E-2,-4.392409E-2],"categories":[],"categories_nodes":[],"categories_segments":[],"categories_sizes":[],"default_left":[0,0,0,0,0],"id":20,"left_children":[1,-1,3,-1,-1],"loss_changes":[4.92148E1,0E0,4.0844746E0,0E0,0E0],"parents":[2147483647,0,0,2,2],"right_children":[2,-1,4,-1,-1],"split_conditions":[2.08E2,-6.1817646E-2,1.75E1,8.254708E-2,-4.392409E-2],"split_indices":[2,0,1,0,0],"split_type":[0,0,0,0,0],"sum_hessian":[1.0163649E2,5.3685936E1,4.7950558E1,4.5848373E1,2.1021833E0],"tree_param":{"num_deleted":"0","num_feature":"10","num_nodes":"5","size_leaf_vector":"1"}},{"base_weights":[1.5576963E-1,7.473138E-1,-4.6847707E-1,7.669626E-2,-2.677941E-3,-9.4469115E-3,-5.592782E-1,6.901234E-2,-5.2723635E-2,-5.7733078E-2,1.0139084E-3],"categories":[],"categories_nodes":[],"categories_segments":[],"categories_sizes":[],"default_left":[0,0,0,0,0,0,0,0,0,0,0],"id":21,"left_children":[1,3,5,-1,-1,7,9,-1,-1,-1,-1],"loss_changes":[3.8114914E1,8.2507515E-1,2.0943193E0,0E0,0E0,3.7456682E0,4.3797684E-1,0E0,0E0,0E0,0E0],"parents":[2147483647,0,0,1,1,2,2,5,5,6,6],"right_children":[2,4,6,-1,-1,8,10,-1,-1,-1,-1],"split_conditions":[4.24E1,2.07E2,4.44E1,7.669626E-2,-2.677941E-3,1E0,2.01E1,6.901234E-2,-5.2723635E-2,-5.7733078E-2,1.0139084E-3],"split_indices":[0,2,0,0,0,5,1,0,0,0,0],"split_type":[0,0,0,0,0,0,0,0,0,0,0],"sum_hessian":[1.0126898E2,5.189524E1,4.937374E1,5.061958E1,1.2756611E0,8.336084E0,4.1037655E1,3.4040902E0,4.931994E0,3.9763123E1,1.2745311E0],"tree_param":{"num_deleted":"0","num_feature":"10","num_nodes":"11","size_leaf_vector":"1"}},{"base_weights":[-2.0844282E-1,-6.038874E-2,2.9863954E-1,-5.1369375E-1,7.33866E-1,7.995195E-3,-5.717603E-2,3.1824514E-2,7.7096775E-2],"categories":[],"categories_nodes":[],"categories_segments":[],"categories_sizes":[],"default_left":[0,0,0,0,0,0,0,0,0],"id":22,"left_children":[1,-1,3,5,7,-1,-1,-1,-1],"loss_changes":[1.8513636E1,0E0,1.4776415E1,5.557735E-1,1.6993237E-1,0E0,0E0,0E0,0E0],"parents":[2147483647,0,0,2,2,3,3,4,4],"right_children":[2,-1,4,6,8,-1,-1,-1,-1],"split_conditions":[1E0,-6.038874E-2,4.24E1,1.69E1,4.44E1,7.995195E-3,-5.717603E-2,3.1824514E-2,7.7096775E-2],"split_indices":[8,0,0,1,0,0,0,0,0],"split_type":[0,0,0,0,0,0,0,0,0],"sum_hessian":[9.04274E1,5.069914E1,3.9728264E1,1.3796793E1,2.593147E1,1.1956921E0,1.2601101E1,2.9100604E0,2.3021412E1],"tree_param":{"num_deleted":"0","num_feature":"10","num_nodes":"9","size_leaf_vector":"1"}},{"base_weights":[3.1979013E-2,-6.050698E-2,7.2084695E-1,7.8054935E-2,-4.237904E-2],"categories":[],"categories_nodes":[],"categories_segments":[],"categories_sizes":[],"default_left":[0,0,0,0,0],"id":23,"left_children":[1,-1,3,-1,-1],"loss_changes":[4.3347176E1,0E0,3.572506E0,0E0,0E0],"parents":[2147483647,0,0,2,2],"right_children":[2,-1,4,-1,-1],"split_conditions":[2.08E2,-6.050698E-2,1.75E1,7.8054935E-2,-4.237904E-2],"split_indices":[2,0,1,0,0],"split_type":[0,0,0,0,0],"sum_hessian":[9.6782265E1,5.034554E1,4.6436726E1,4.4437042E1,1.9996835E0],"tree_param":{"num_deleted":"0","num_feature":"10","num_nodes":"5","size_leaf_vector":"1"}},{"base_weights":[1.4995119E-1,7.0946527E-1,-4.5426807E-1,2.2174494E-1,7.464583E-2,-6.9301017E-3,-5.449756E-1,5.8238246E-2,-4.8158433E-2,6.584548E-2,-5.1387038E-2,-5.636356E-2,1.1447073E-3],"categories":[],"categories_nodes":[],"categories_segments":[],"categories_sizes":[],"default_left":[0,0,0,0,0,0,0,0,0,0,0,0,0],"id":24,"left_children":[1,3,5,7,-1,9,11,-1,-1,-1,-1,-1,-1],"loss_changes":[3.3268852E1,7.5444984E-1,1.9222193E0,1.5531279E0,0E0,3.3791854E0,4.1606045E-1,0E0,0E0,0E0,0E0,0E0,0E0],"parents":[2147483647,0,0,1,1,2,2,3,3,5,5,6,6],"right_children":[2,4,6,8,-1,10,12,-1,-1,-1,-1,-1,-1],"split_conditions":[4.24E1,1.67E1,4.44E1,3.82E1,7.464583E-2,1E0,2.01E1,5.8238246E-2,-4.8158433E-2,6.584548E-2,-5.1387038E-2,-5.636356E-2,1.1447073E-3],"split_indices":[0,1,0,0,0,5,1,0,0,0,0,0,0],"split_type":[0,0,0,0,0,0,0,0,0,0,0,0,0],"sum_hessian":[9.645511E1,4.9989796E1,4.6465317E1,4.017454E0,4.597234E1,8.014917E0,3.8450397E1,2.769391E0,1.2480631E0,3.336591E0,4.6783266E0,3.7190235E1,1.2601638E0],"tree_param":{"num_deleted":"0","num_feature":"10","num_nodes":"13","size_leaf_vector":"1"}},{"base_weights":[-2.0139526E-1,-5.9190836E-2,2.8701466E-1,-4.9736744E-1,6.963978E-1,9.126018E-3,-5.584941E-2,2.9724328E-2,7.335008E-2],"categories":[],"categories_nodes":[],"categories_segments":[],"categories_sizes":[],"default_left":[0,0,0,0,0,0,0,0,0],"id":25,"left_children":[1,-1,3,5,7,-1,-1,-1,-1],"loss_changes":[1.6649824E1,0E0,1.2890201E1,5.539663E-1,1.6827202E-1,0E0,0E0,0E0,0E0],"parents":[2147483647,0,0,2,2,3,3,4,4],"right_children":[2,-1,4,6,8,-1,-1,-1,-1],"split_conditions":[1E0,-5.9190836E-2,4.24E1,1.69E1,4.44E1,9.126018E-3,-5.584941E-2,2.9724328E-2,7.335008E-2],"split_indices":[8,0,0,1,0,0,0,0,0],"split_type":[0,0,0,0,0,0,0,0,0],"sum_hessian":[8.5404335E1,4.7340694E1,3.806364E1,1.2979627E1,2.5084013E1,1.1747012E0,1.1804926E1,2.8997505E0,2.2184261E1],"tree_param":{"num_deleted":"0","num_feature":"10","num_nodes":"9","size_leaf_vector":"1"}},{"base_weights":[3.0066755E-2,-5.932135E-2,6.856359E-1,7.429176E-2,-4.1110944E-2],"categories":[],"categories_nodes":[],"categories_segments":[],"categories_sizes":[],"default_left":[0,0,0,0,0],"id":26,"left_children":[1,-1,3,-1,-1],"loss_changes":[3.829405E1,0E0,3.1736393E0,0E0,0E0],"parents":[2147483647,0,0,2,2],"right_children":[2,-1,4,-1,-1],"split_conditions":[2.08E2,-5.932135E-2,1.75E1,7.429176E-2,-4.1110944E-2],"split_indices":[2,0,1,0,0],"split_type":[0,0,0,0,0],"sum_hessian":[9.172397E1,4.7068687E1,4.465528E1,4.274536E1,1.9099203E0],"tree_param":{"num_deleted":"0","num_feature":"10","num_nodes":"5","size_leaf_vector":"1"}},{"base_weights":[1.4498873E-1,6.776417E-1,-4.4095215E-1,2.0379592E-1,7.141214E-2,-5.7651818E-2,-1.2953551E-1,5.5368066E-2,-4.6919085E-2,5.9789963E-2,-5.399188E-2],"categories":[],"categories_nodes":[],"categories_segments":[],"categories_sizes":[],"default_left":[0,0,0,0,0,0,0,0,0,0,0],"id":27,"left_children":[1,3,5,7,-1,-1,9,-1,-1,-1,-1],"loss_changes":[2.9156096E1,6.984768E-1,1.8096504E0,1.411138E0,0E0,0E0,4.7490377E0,0E0,0E0,0E0,0E0],"parents":[2147483647,0,0,1,1,2,2,3,3,6,6],"right_children":[2,4,6,8,-1,-1,10,-1,-1,-1,-1],"split_conditions":[4.24E1,1.67E1,1.8E1,3.82E1,7.141214E-2,-5.7651818E-2,4.6E1,5.5368066E-2,-4.6919085E-2,5.9789963E-2,-5.399188E-2],"split_indices":[0,1,1,0,0,0,0,0,0,0,0],"split_type":[0,0,0,0,0,0,0,0,0,0,0],"sum_hessian":[9.146075E1,4.7826916E1,4.3633835E1,3.8896544E0,4.393726E1,2.9806976E1,1.3826859E1,2.6757927E0,1.2138617E0,4.8222065E0,9.004653E0],"tree_param":{"num_deleted":"0","num_feature":"10","num_nodes":"11","size_leaf_vector":"1"}},{"base_weights":[-1.9504254E-1,-5.8114897E-2,2.7687925E-1,-4.8202395E-1,6.6408205E-1,9.293365E-3,-5.457915E-2,2.7799586E-2,7.016033E-2],"categories":[],"categories_nodes":[],"categories_segments":[],"categories_sizes":[],"default_left":[0,0,0,0,0,0,0,0,0],"id":28,"left_children":[1,-1,3,5,7,-1,-1,-1,-1],"loss_changes":[1.4994357E1,0E0,1.1283667E1,5.341091E-1,1.6894054E-1,0E0,0E0,0E0,0E0],"parents":[2147483647,0,0,2,2,3,3,4,4],"right_children":[2,-1,4,6,8,-1,-1,-1,-1],"split_conditions":[1E0,-5.8114897E-2,4.24E1,1.69E1,4.44E1,9.293365E-3,-5.457915E-2,2.7799586E-2,7.016033E-2],"split_indices":[8,0,0,1,0,0,0,0,0],"split_type":[0,0,0,0,0,0,0,0,0],"sum_hessian":[8.0407616E1,4.4097473E1,3.6310143E1,1.2184359E1,2.4125782E1,1.1707706E0,1.1013588E1,2.881787E0,2.1243996E1],"tree_param":{"num_deleted":"0","num_feature":"10","num_nodes":"9","size_leaf_vector":"1"}},{"base_weights":[2.8233089E-2,-5.8256026E-2,6.5577966E-1,7.108342E-2,-3.9695125E-2],"categories":[],"categories_nodes":[],"categories_segments":[],"categories_sizes":[],"default_left":[0,0,0,0,0],"id":29,"left_children":[1,-1,3,-1,-1],"loss_changes":[3.394507E1,0E0,2.8125782E0,0E0,0E0],"parents":[2147483647,0,0,2,2],"right_children":[2,-1,4,-1,-1],"split_conditions":[2.08E2,-5.8256026E-2,1.75E1,7.108342E-2,-3.9695125E-2],"split_indices":[2,0,1,0,0],"split_type":[0,0,0,0,0],"sum_hessian":[8.656308E1,4.3903416E1,4.2659668E1,4.0848206E1,1.811462E0],"tree_param":{"num_deleted":"0","num_feature":"10","num_nodes":"5","size_leaf_vector":"1"}},{"base_weights":[1.405533E-1,6.502388E-1,-4.2878768E-1,1.8711415E-1,6.865108E-2,-5.6607146E-2,-1.2015611E-1,5.2783247E-2,-4.5742776E-2,5.6527264E-2,-5.2751612E-2],"categories":[],"categories_nodes":[],"categories_segments":[],"categories_sizes":[],"default_left":[0,0,0,0,0,0,0,0,0,0,0],"id":30,"left_children":[1,3,5,7,-1,-1,9,-1,-1,-1,-1],"loss_changes":[2.5638184E1,6.5281105E-1,1.7065301E0,1.2851633E0,0E0,0E0,4.252919E0,0E0,0E0,0E0,0E0],"parents":[2147483647,0,0,1,1,2,2,3,3,6,6],"right_children":[2,4,6,8,-1,-1,10,-1,-1,-1,-1],"split_conditions":[4.24E1,1.67E1,1.8E1,3.82E1,6.865108E-2,-5.6607146E-2,4.6E1,5.2783247E-2,-4.5742776E-2,5.6527264E-2,-5.2751612E-2],"split_indices":[0,1,1,0,0,0,0,0,0,0,0],"split_type":[0,0,0,0,0,0,0,0,0,0,0],"sum_hessian":[8.6390396E1,4.550833E1,4.0882065E1,3.7526581E0,4.1755672E1,2.771839E1,1.3163677E1,2.5733862E0,1.1792719E0,4.7625337E0,8.401143E0],"tree_param":{"num_deleted":"0","num_feature":"10","num_nodes":"11","size_leaf_vector":"1"}},{"base_weights":[-1.8899427E-1,-5.712123E-2,2.6810002E-1,-4.673296E-1,6.359992E-1,9.446658E-3,-5.339427E-2,2.6269881E-2,6.7392126E-2],"categories":[],"categories_nodes":[],"categories_segments":[],"categories_sizes":[],"default_left":[0,0,0,0,0,0,0,0,0],"id":31,"left_children":[1,-1,3,5,7,-1,-1,-1,-1],"loss_changes":[1.3518E1,0E0,9.906872E0,5.1521206E-1,1.6409588E-1,0E0,0E0,0E0,0E0],"parents":[2147483647,0,0,2,2,3,3,4,4],"right_children":[2,-1,4,6,8,-1,-1,-1,-1],"split_conditions":[1E0,-5.712123E-2,4.24E1,1.69E1,4.44E1,9.446658E-3,-5.339427E-2,2.6269881E-2,6.7392126E-2],"split_indices":[8,0,0,1,0,0,0,0,0],"split_type":[0,0,0,0,0,0,0,0,0],"sum_hessian":[7.5497536E1,4.0980423E1,3.4517113E1,1.1419431E1,2.3097681E1,1.1661677E0,1.02532625E1,2.8610604E0,2.023662E1],"tree_param":{"num_deleted":"0","num_feature":"10","num_nodes":"9","size_leaf_vector":"1"}},{"base_weights":[2.6404127E-2,-5.7266504E-2,6.2966794E-1,6.830827E-2,-3.837229E-2],"categories":[],"categories_nodes":[],"categories_segments":[],"categories_sizes":[],"default_left":[0,0,0,0,0],"id":32,"left_children":[1,-1,3,-1,-1],"loss_changes":[3.012436E1,0E0,2.5091286E0,0E0,0E0],"parents":[2147483647,0,0,2,2],"right_children":[2,-1,4,-1,-1],"split_conditions":[2.08E2,-5.7266504E-2,1.75E1,6.830827E-2,-3.837229E-2],"split_indices":[2,0,1,0,0],"split_type":[0,0,0,0,0],"sum_hessian":[8.1357605E1,4.084617E1,4.0511433E1,3.8792656E1,1.718776E0],"tree_param":{"num_deleted":"0","num_feature":"10","num_nodes":"5","size_leaf_vector":"1"}},{"base_weights":[1.3660404E-1,6.264129E-1,-4.1737387E-1,1.7150134E-1,6.627326E-2,-5.5651207E-2,-1.11308776E-1,5.0434995E-2,-4.4622917E-2,5.3570062E-2,-5.1581968E-2],"categories":[],"categories_nodes":[],"categories_segments":[],"categories_sizes":[],"default_left":[0,0,0,0,0,0,0,0,0,0,0],"id":33,"left_children":[1,3,5,7,-1,-1,9,-1,-1,-1,-1],"loss_changes":[2.2603415E1,6.1496925E-1,1.6090345E0,1.172859E0,0E0,0E0,3.8129985E0,0E0,0E0,0E0,0E0],"parents":[2147483647,0,0,1,1,2,2,3,3,6,6],"right_children":[2,4,6,8,-1,-1,10,-1,-1,-1,-1],"split_conditions":[4.24E1,1.67E1,1.8E1,3.82E1,6.627326E-2,-5.5651207E-2,4.6E1,5.0434995E-2,-4.4622917E-2,5.3570062E-2,-5.1581968E-2],"split_indices":[0,1,1,0,0,0,0,0,0,0,0],"split_type":[0,0,0,0,0,0,0,0,0,0,0],"sum_hessian":[8.133837E1,4.3100014E1,3.8238358E1,3.6096983E0,3.949032E1,2.572528E1,1.2513076E1,2.4650252E0,1.1446732E0,4.688912E0,7.8241644E0],"tree_param":{"num_deleted":"0","num_feature":"10","num_nodes":"11","size_leaf_vector":"1"}},{"base_weights":[-1.8337454E-1,-5.621646E-2,2.603506E-1,-4.5316115E-1,6.112627E-1,9.585728E-3,-5.228095E-2,2.485789E-2,6.498957E-2],"categories":[],"categories_nodes":[],"categories_segments":[],"categories_sizes":[],"default_left":[0,0,0,0,0,0,0,0,0],"id":34,"left_children":[1,-1,3,5,7,-1,-1,-1,-1],"loss_changes":[1.22009735E1,0E0,8.717922E0,4.9705696E-1,1.610527E-1,0E0,0E0,0E0,0E0],"parents":[2147483647,0,0,2,2,3,3,4,4],"right_children":[2,-1,4,6,8,-1,-1,-1,-1],"split_conditions":[1E0,-5.621646E-2,4.24E1,1.69E1,4.44E1,9.585728E-3,-5.228095E-2,2.485789E-2,6.498957E-2],"split_indices":[8,0,0,1,0,0,0,0,0],"split_type":[0,0,0,0,0,0,0,0,0],"sum_hessian":[7.0720055E1,3.80076E1,3.271246E1,1.0688362E1,2.2024096E1,1.1609119E0,9.527451E0,2.8358347E0,1.9188261E1],"tree_param":{"num_deleted":"0","num_feature":"10","num_nodes":"9","size_leaf_vector":"1"}},{"base_weights":[2.4655785E-2,-5.6366842E-2,6.070137E-1,6.591626E-2,-3.709465E-2],"categories":[],"categories_nodes":[],"categories_segments":[],"categories_sizes":[],"default_left":[0,0,0,0,0],"id":35,"left_children":[1,-1,3,-1,-1],"loss_changes":[2.6798323E1,0E0,2.2481537E0,0E0,0E0],"parents":[2147483647,0,0,2,2],"right_children":[2,-1,4,-1,-1],"split_conditions":[2.08E2,-5.6366842E-2,1.75E1,6.591626E-2,-3.709465E-2],"split_indices":[2,0,1,0,0],"split_type":[0,0,0,0,0],"sum_hessian":[7.621829E1,3.7930893E1,3.8287403E1,3.6658596E1,1.6288062E0],"tree_param":{"num_deleted":"0","num_feature":"10","num_nodes":"5","size_leaf_vector":"1"}},{"base_weights":[1.3305797E-1,6.0550404E-1,-4.0659726E-1,1.5679687E-1,6.420901E-2,-5.477137E-2,-1.0294184E-1,4.8283663E-2,-4.3553527E-2,5.0869513E-2,-5.047105E-2],"categories":[],"categories_nodes":[],"categories_segments":[],"categories_sizes":[],"default_left":[0,0,0,0,0,0,0,0,0,0,0],"id":36,"left_children":[1,3,5,7,-1,-1,9,-1,-1,-1,-1],"loss_changes":[1.9972221E1,5.8315563E-1,1.51685E0,1.0722976E0,0E0,0E0,3.4218488E0,0E0,0E0,0E0,0E0],"parents":[2147483647,0,0,1,1,2,2,3,3,6,6],"right_children":[2,4,6,8,-1,-1,10,-1,-1,-1,-1],"split_conditions":[4.24E1,1.67E1,1.8E1,3.82E1,6.420901E-2,-5.477137E-2,4.6E1,4.8283663E-2,-4.3553527E-2,5.0869513E-2,-5.047105E-2],"split_indices":[0,1,1,0,0,0,0,0,0,0,0],"split_type":[0,0,0,0,0,0,0,0,0,0,0],"sum_hessian":[7.6369705E1,4.065548E1,3.5714226E1,3.4634845E0,3.7191994E1,2.3834154E1,1.1880074E1,2.3531084E0,1.1103761E0,4.60439E0,7.275684E0],"tree_param":{"num_deleted":"0","num_feature":"10","num_nodes":"11","size_leaf_vector":"1"}},{"base_weights":[-1.7810878E-1,-5.5388678E-2,2.5345954E-1,-4.3941388E-1,5.8925146E-1,9.010775E-3,-5.1497202E-2,2.355027E-2,6.288596E-2],"categories":[],"categories_nodes":[],"categories_segments":[],"categories_sizes":[],"default_left":[0,0,0,0,0,0,0,0,0],"id":37,"left_children":[1,-1,3,5,7,-1,-1,-1,-1],"loss_changes":[1.1024053E1,0E0,7.6861267E0,4.8625088E-1,1.5916014E-1,0E0,0E0,0E0,0E0],"parents":[2147483647,0,0,2,2,3,3,4,4],"right_children":[2,-1,4,6,8,-1,-1,-1,-1],"split_conditions":[1E0,-5.5388678E-2,4.24E1,3.25E3,4.44E1,9.010775E-3,-5.1497202E-2,2.355027E-2,6.288596E-2],"split_indices":[8,0,0,3,0,0,0,0,0],"split_type":[0,0,0,0,0,0,0,0,0],"sum_hessian":[6.611109E1,3.5188286E1,3.0922802E1,9.993538E0,2.0929264E1,1.2238778E0,8.76966E0,2.8068163E0,1.8122448E1],"tree_param":{"num_deleted":"0","num_feature":"10","num_nodes":"9","size_leaf_vector":"1"}},{"base_weights":[2.2969024E-2,-5.5544894E-2,5.871852E-1,6.383745E-2,-3.5858665E-2],"categories":[],"categories_nodes":[],"categories_segments":[],"categories_sizes":[],"default_left":[0,0,0,0,0],"id":38,"left_children":[1,-1,3,-1,-1],"loss_changes":[2.388951E1,0E0,2.021946E0,0E0,0E0],"parents":[2147483647,0,0,2,2],"right_children":[2,-1,4,-1,-1],"split_conditions":[2.08E2,-5.5544894E-2,1.75E1,6.383745E-2,-3.5858665E-2],"split_indices":[2,0,1,0,0],"split_type":[0,0,0,0,0],"sum_hessian":[7.12021E1,3.516624E1,3.6035866E1,3.4493923E1,1.5419406E0],"tree_param":{"num_deleted":"0","num_feature":"10","num_nodes":"5","size_leaf_vector":"1"}},{"base_weights":[1.2984326E-1,5.4029584E-1,-4.5674828E-1,-3.5588052E-2,5.8315945E-1,-5.2091517E-2,-1.5244186E-1,2.4371937E-2,6.0772717E-2,4.516074E-2,-4.552344E-2],"categories":[],"categories_nodes":[],"categories_segments":[],"categories_sizes":[],"default_left":[0,0,0,0,0,0,0,0,0,0,0],"id":39,"left_children":[1,3,5,-1,7,-1,9,-1,-1,-1,-1],"loss_changes":[1.7711796E1,1.8644924E0,5.142689E-1,0E0,1.9833851E-1,0E0,1.43255E0,0E0,0E0,0E0,0E0],"parents":[2147483647,0,0,1,1,2,2,4,4,6,6],"right_children":[2,4,6,-1,8,-1,10,-1,-1,-1,-1],"split_conditions":[4.33E1,1.48E1,1.89E1,-3.5588052E-2,1.68E1,-5.2091517E-2,4.6E1,2.4371937E-2,6.0772717E-2,4.516074E-2,-4.552344E-2],"split_indices":[0,1,1,0,1,0,0,0,0,0,0],"split_type":[0,0,0,0,0,0,0,0,0,0,0],"sum_hessian":[7.153878E1,4.2134888E1,2.9403896E1,1.5899615E0,4.0544926E1,2.3695574E1,5.7083216E0,3.4735036E0,3.7071423E1,1.7418938E0,3.9664278E0],"tree_param":{"num_deleted":"0","num_feature":"10","num_nodes":"11","size_leaf_vector":"1"}},{"base_weights":[-1.7312355E-1,-5.4627337E-2,2.4723367E-1,-4.2581245E-1,5.694736E-1,1.0385666E-2,-5.0249245E-2,2.2335712E-2,6.1028607E-2],"categories":[],"categories_nodes":[],"categories_segments":[],"categories_sizes":[],"default_left":[0,0,0,0,0,0,0,0,0],"id":40,"left_children":[1,-1,3,5,7,-1,-1,-1,-1],"loss_changes":[9.970255E0,0E0,6.7867603E0,4.7221088E-1,1.5796804E-1,0E0,0E0,0E0,0E0],"parents":[2147483647,0,0,2,2,3,3,4,4],"right_children":[2,-1,4,6,8,-1,-1,-1,-1],"split_conditions":[1E0,-5.4627337E-2,4.24E1,1.69E1,4.44E1,1.0385666E-2,-5.0249245E-2,2.2335712E-2,6.1028607E-2],"split_indices":[8,0,0,1,0,0,0,0,0],"split_type":[0,0,0,0,0,0,0,0,0],"sum_hessian":[6.1702003E1,3.2527714E1,2.9174292E1,9.341585E0,1.9832706E1,1.136533E0,8.205051E0,2.774646E0,1.705806E1],"tree_param":{"num_deleted":"0","num_feature":"10","num_nodes":"9","size_leaf_vector":"1"}},{"base_weights":[2.132841E-2,-5.478985E-2,5.696834E-1,6.201684E-2,-3.4661498E-2],"categories":[],"categories_nodes":[],"categories_segments":[],"categories_sizes":[],"default_left":[0,0,0,0,0],"id":41,"left_children":[1,-1,3,-1,-1],"loss_changes":[2.1335379E1,0E0,1.8245707E0,0E0,0E0],"parents":[2147483647,0,0,2,2],"right_children":[2,-1,4,-1,-1],"split_conditions":[2.08E2,-5.478985E-2,1.75E1,6.201684E-2,-3.4661498E-2],"split_indices":[2,0,1,0,0],"split_type":[0,0,0,0,0],"sum_hessian":[6.635233E1,3.255698E1,3.3795357E1,3.233688E1,1.4584748E0],"tree_param":{"num_deleted":"0","num_feature":"10","num_nodes":"5","size_leaf_vector":"1"}},{"base_weights":[1.2650336E-1,5.7048744E-1,-3.8687956E-1,1.30015E-1,6.084004E-2,-5.3288735E-2,-8.526099E-2,4.4844203E-2,-4.2446163E-2,4.673897E-2,-4.839855E-2],"categories":[],"categories_nodes":[],"categories_segments":[],"categories_sizes":[],"default_left":[0,0,0,0,0,0,0,0,0,0,0],"id":42,"left_children":[1,3,5,7,-1,-1,9,-1,-1,-1,-1],"loss_changes":[1.5727724E1,5.368862E-1,1.3702555E0,9.3103427E-1,0E0,0E0,2.7991016E0,0E0,0E0,0E0,0E0],"parents":[2147483647,0,0,1,1,2,2,3,3,6,6],"right_children":[2,4,6,8,-1,-1,10,-1,-1,-1,-1],"split_conditions":[4.24E1,1.67E1,1.8E1,3.82E1,6.084004E-2,-5.3288735E-2,4.6E1,4.4844203E-2,-4.2446163E-2,4.673897E-2,-4.839855E-2],"split_indices":[0,1,1,0,0,0,0,0,0,0,0],"split_type":[0,0,0,0,0,0,0,0,0,0,0],"sum_hessian":[6.703295E1,3.588641E1,3.1146538E1,3.1950977E0,3.2691315E1,2.0470436E1,1.0676102E1,2.1510296E0,1.044068E0,4.402215E0,6.2738867E0],"tree_param":{"num_deleted":"0","num_feature":"10","num_nodes":"11","size_leaf_vector":"1"}},{"base_weights":[-1.6806737E-1,-5.3935178E-2,2.4246396E-1,-4.1225263E-1,5.5239266E-1,1.055731E-2,-4.9569026E-2,6.0902115E-2,2.577211E-2],"categories":[],"categories_nodes":[],"categories_segments":[],"categories_sizes":[],"default_left":[0,0,0,0,0,0,0,0,0],"id":43,"left_children":[1,-1,3,5,7,-1,-1,-1,-1],"loss_changes":[9.056925E0,0E0,6.0109534E0,4.727087E-1,1.7295933E-1,0E0,0E0,0E0,0E0],"parents":[2147483647,0,0,2,2,3,3,4,4],"right_children":[2,-1,4,6,8,-1,-1,-1,-1],"split_conditions":[1E0,-5.3935178E-2,4.24E1,3.25E3,4.075E3,1.055731E-2,-4.9569026E-2,6.0902115E-2,2.577211E-2],"split_indices":[8,0,0,3,3,0,0,0,0],"split_type":[0,0,0,0,0,0,0,0,0],"sum_hessian":[5.756138E1,3.00607E1,2.7500677E1,8.729557E0,1.877112E1,1.1745903E0,7.5549664E0,1.4850456E1,3.9206638E0],"tree_param":{"num_deleted":"0","num_feature":"10","num_nodes":"9","size_leaf_vector":"1"}},{"base_weights":[1.969072E-2,-5.4095246E-2,5.537475E-1,6.0430903E-2,-3.374445E-2],"categories":[],"categories_nodes":[],"categories_segments":[],"categories_sizes":[],"default_left":[0,0,0,0,0],"id":44,"left_children":[1,-1,3,-1,-1],"loss_changes":[1.909195E1,0E0,1.6745949E0,0E0,0E0],"parents":[2147483647,0,0,2,2],"right_children":[2,-1,4,-1,-1],"split_conditions":[2.08E2,-5.4095246E-2,1.75E1,6.0430903E-2,-3.374445E-2],"split_indices":[2,0,1,0,0],"split_type":[0,0,0,0,0],"sum_hessian":[6.1763664E1,3.0125523E1,3.1638142E1,3.0244158E1,1.393984E0],"tree_param":{"num_deleted":"0","num_feature":"10","num_nodes":"5","size_leaf_vector":"1"}},{"base_weights":[1.23810686E-1,5.5548227E-1,-3.7728068E-1,1.1722901E-1,5.942018E-2,-5.078997E-1,-4.2839177E-2,4.3092802E-2,-4.1476812E-2,-5.2548315E-2,-1.8072827E-2,5.234809E-2,-4.637867E-2],"categories":[],"categories_nodes":[],"categories_segments":[],"categories_sizes":[],"default_left":[0,0,0,0,0,0,0,0,0,0,0,0,0],"id":45,"left_children":[1,3,5,7,-1,9,11,-1,-1,-1,-1,-1,-1],"loss_changes":[1.396085E1,5.1673317E-1,1.2894893E0,8.5479504E-1,0E0,2.867937E-2,2.5128968E0,0E0,0E0,0E0,0E0,0E0,0E0],"parents":[2147483647,0,0,1,1,2,2,3,3,5,5,6,6],"right_children":[2,4,6,8,-1,10,12,-1,-1,-1,-1,-1,-1],"split_conditions":[4.24E1,1.67E1,1.83E1,3.82E1,5.942018E-2,1.8E1,4.6E1,4.3092802E-2,-4.1476812E-2,-5.2548315E-2,-1.8072827E-2,5.234809E-2,-4.637867E-2],"split_indices":[0,1,1,0,0,1,0,0,0,0,0,0,0],"split_type":[0,0,0,0,0,0,0,0,0,0,0,0,0],"sum_hessian":[6.2572998E1,3.355665E1,2.901635E1,3.051004E0,3.0505642E1,2.0493704E1,8.522646E0,2.0387871E0,1.0122168E0,1.8873245E1,1.6204575E0,3.5299983E0,4.9926476E0],"tree_param":{"num_deleted":"0","num_feature":"10","num_nodes":"13","size_leaf_vector":"1"}},{"base_weights":[-1.6337734E-1,-5.3278845E-2,2.3717697E-1,-4.875401E-2,5.008803E-1,1.5926067E-2,5.797794E-2],"categories":[],"categories_nodes":[],"categories_segments":[],"categories_sizes":[],"default_left":[0,0,0,0,0,0,0],"id":46,"left_children":[1,-1,3,-1,5,-1,-1],"loss_changes":[8.20726E0,0E0,5.383825E0,0E0,4.5244122E-1,0E0,0E0],"parents":[2147483647,0,0,2,2,4,4],"right_children":[2,-1,4,-1,6,-1,-1],"split_conditions":[1E0,-5.3278845E-2,4.09E1,-4.875401E-2,4.44E1,1.5926067E-2,5.797794E-2],"split_indices":[8,0,0,0,0,0,0],"split_type":[0,0,0,0,0,0,0],"sum_hessian":[5.3612E1,2.7718498E1,2.5893503E1,6.681738E0,1.9211765E1,4.1709213E0,1.5040844E1],"tree_param":{"num_deleted":"0","num_feature":"10","num_nodes":"7","size_leaf_vector":"1"}},{"base_weights":[1.8021857E-2,-5.343741E-2,5.3921515E-1,5.900045E-2,-3.280185E-2],"categories":[],"categories_nodes":[],"categories_segments":[],"categories_sizes":[],"default_left":[0,0,0,0,0],"id":47,"left_children":[1,-1,3,-1,-1],"loss_changes":[1.7083633E1,0E0,1.5375566E0,0E0,0E0],"parents":[2147483647,0,0,2,2],"right_children":[2,-1,4,-1,-1],"split_conditions":[2.08E2,-5.343741E-2,1.75E1,5.900045E-2,-3.280185E-2],"split_indices":[2,0,1,0,0],"split_type":[0,0,0,0,0],"sum_hessian":[5.7336903E1,2.7822958E1,2.9513945E1,2.818308E1,1.3308648E0],"tree_param":{"num_deleted":"0","num_feature":"10","num_nodes":"5","size_leaf_vector":"1"}},{"base_weights":[1.2128039E-1,4.962964E-1,-4.2723793E-1,-3.155114E-2,5.357885E-1,-4.9730194E-1,-1.2060025E-1,1.9099401E-2,5.6374907E-2,-1.9279186E-2,-5.154387E-2,3.9219674E-2,-4.2171072E-2],"categories":[],"categories_nodes":[],"categories_segments":[],"categories_sizes":[],"default_left":[0,0,0,0,0,0,0,0,0,0,0,0,0],"id":48,"left_children":[1,3,5,-1,7,9,11,-1,-1,-1,-1,-1,-1],"loss_changes":[1.2421579E1,1.3140907E0,4.6938705E-1,0E0,2.2424984E-1,9.62925E-3,1.0768569E0,0E0,0E0,0E0,0E0,0E0,0E0],"parents":[2147483647,0,0,1,1,2,2,4,4,5,5,6,6],"right_children":[2,4,6,-1,8,10,12,-1,-1,-1,-1,-1,-1],"split_conditions":[4.33E1,1.48E1,1.89E1,-3.155114E-2,1.68E1,4.44E1,4.6E1,1.9099401E-2,5.6374907E-2,-1.9279186E-2,-5.154387E-2,3.9219674E-2,-4.2171072E-2],"split_indices":[0,1,1,0,1,0,0,0,0,0,0,0,0],"split_type":[0,0,0,0,0,0,0,0,0,0,0,0,0],"sum_hessian":[5.8355152E1,3.471565E1,2.3639505E1,1.2862382E0,3.342941E1,1.8736572E1,4.902933E0,3.094953E0,3.0334455E1,1.7069724E0,1.70296E1,1.7019604E0,3.2009728E0],"tree_param":{"num_deleted":"0","num_feature":"10","num_nodes":"13","size_leaf_vector":"1"}},{"base_weights":[-1.5885924E-1,-5.2662957E-2,2.3215428E-1,-4.7776222E-2,4.8590836E-1,1.5288218E-2,5.665339E-2],"categories":[],"categories_nodes":[],"categories_segments":[],"categories_sizes":[],"default_left":[0,0,0,0,0,0,0],"id":49,"left_children":[1,-1,3,-1,5,-1,-1],"loss_changes":[7.441687E0,0E0,4.8013153E0,0E0,4.28401E-1,0E0,0E0],"parents":[2147483647,0,0,2,2,4,4],"right_children":[2,-1,4,-1,6,-1,-1],"split_conditions":[1E0,-5.2662957E-2,4.09E1,-4.7776222E-2,4.44E1,1.5288218E-2,5.665339E-2],"split_indices":[8,0,0,0,0,0,0],"split_type":[0,0,0,0,0,0,0],"sum_hessian":[4.9898933E1,2.5534994E1,2.4363937E1,6.1830673E0,1.818087E1,4.108166E0,1.4072703E1],"tree_param":{"num_deleted":"0","num_feature":"10","num_nodes":"7","size_leaf_vector":"1"}},{"base_weights":[1.638685E-2,-5.2827895E-2,5.261429E-1,5.772037E-2,-3.1861104E-2],"categories":[],"categories_nodes":[],"categories_segments":[],"categories_sizes":[],"default_left":[0,0,0,0,0],"id":50,"left_children":[1,-1,3,-1,-1],"loss_changes":[1.5309094E1,0E0,1.4117522E0,0E0,0E0],"parents":[2147483647,0,0,2,2],"right_children":[2,-1,4,-1,-1],"split_conditions":[2.08E2,-5.2827895E-2,1.75E1,5.772037E-2,-3.1861104E-2],"split_indices":[2,0,1,0,0],"split_type":[0,0,0,0,0],"sum_hessian":[5.313767E1,2.5671627E1,2.7466042E1,2.6199163E1,1.266877E0],"tree_param":{"num_deleted":"0","num_feature":"10","num_nodes":"5","size_leaf_vector":"1"}},{"base_weights":[1.18369244E-1,5.294067E-1,-3.6024472E-1,9.402769E-2,5.703882E-2,-5.13317E-2,-6.501917E-2,3.7853617E-2,-2.7060142E-2,4.1454714E-2,-4.562247E-2],"categories":[],"categories_nodes":[],"categories_segments":[],"categories_sizes":[],"default_left":[0,0,0,0,0,0,0,0,0,0,0],"id":51,"left_children":[1,3,5,7,-1,-1,9,-1,-1,-1,-1],"loss_changes":[1.1108397E1,4.8629475E-1,1.1522293E0,4.9672058E-1,0E0,0E0,2.0845785E0,0E0,0E0,0E0,0E0],"parents":[2147483647,0,0,1,1,2,2,3,3,6,6],"right_children":[2,4,6,8,-1,-1,10,-1,-1,-1,-1],"split_conditions":[4.24E1,1.67E1,1.8E1,3.78E1,5.703882E-2,-5.13317E-2,4.6E1,3.7853617E-2,-2.7060142E-2,4.1454714E-2,-4.562247E-2],"split_indices":[0,1,1,0,0,0,0,0,0,0,0],"split_type":[0,0,0,0,0,0,0,0,0,0,0],"sum_hessian":[5.449625E1,2.9260756E1,2.5235493E1,2.8007314E0,2.6460024E1,1.613229E1,9.103203E0,1.5517838E0,1.2489476E0,4.0629263E0,5.0402765E0],"tree_param":{"num_deleted":"0","num_feature":"10","num_nodes":"11","size_leaf_vector":"1"}},{"base_weights":[-1.5420145E-1,-5.2093472E-2,2.2822607E-1,-4.6864957E-2,4.7351578E-1,1.5483292E-2,5.5424374E-2],"categories":[],"categories_nodes":[],"categories_segments":[],"categories_sizes":[],"default_left":[0,0,0,0,0,0,0],"id":52,"left_children":[1,-1,3,-1,5,-1,-1],"loss_changes":[6.7741647E0,0E0,4.3115606E0,0E0,3.822441E-1,0E0,0E0],"parents":[2147483647,0,0,2,2,4,4],"right_children":[2,-1,4,-1,6,-1,-1],"split_conditions":[1E0,-5.2093472E-2,4.09E1,-4.6864957E-2,4.44E1,1.5483292E-2,5.5424374E-2],"split_indices":[8,0,0,0,0,0,0],"split_type":[0,0,0,0,0,0,0],"sum_hessian":[4.645331E1,2.3528347E1,2.292496E1,5.7313685E0,1.719359E1,4.064898E0,1.3128693E1],"tree_param":{"num_deleted":"0","num_feature":"10","num_nodes":"7","size_leaf_vector":"1"}},{"base_weights":[1.4895196E-2,-5.2260008E-2,5.14425E-1,5.658753E-2,-3.095808E-2],"categories":[],"categories_nodes":[],"categories_segments":[],"categories_sizes":[],"default_left":[0,0,0,0,0],"id":53,"left_children":[1,-1,3,-1,-1],"loss_changes":[1.3757801E1,0E0,1.3004913E0,0E0,0E0],"parents":[2147483647,0,0,2,2],"right_children":[2,-1,4,-1,-1],"split_conditions":[2.08E2,-5.2260008E-2,1.75E1,5.658753E-2,-3.095808E-2],"split_indices":[2,0,1,0,0],"split_type":[0,0,0,0,0],"sum_hessian":[4.923918E1,2.3696022E1,2.554316E1,2.4336847E1,1.206312E0],"tree_param":{"num_deleted":"0","num_feature":"10","num_nodes":"5","size_leaf_vector":"1"}},{"base_weights":[1.1628156E-1,5.1769996E-1,-3.517169E-1,8.384079E-2,5.6002934E-2,-4.8810133E-1,-2.0844173E-2,3.639673E-2,-2.6526147E-2,-5.0714165E-2,-1.6304215E-2,4.711328E-2,-4.338224E-2],"categories":[],"categories_nodes":[],"categories_segments":[],"categories_sizes":[],"default_left":[0,0,0,0,0,0,0,0,0,0,0,0,0],"id":54,"left_children":[1,3,5,7,-1,9,11,-1,-1,-1,-1,-1,-1],"loss_changes":[9.899762E0,4.7183752E-1,1.0944405E0,4.5712483E-1,0E0,2.4320602E-2,1.8682907E0,0E0,0E0,0E0,0E0,0E0,0E0],"parents":[2147483647,0,0,1,1,2,2,3,3,5,5,6,6],"right_children":[2,4,6,8,-1,10,12,-1,-1,-1,-1,-1,-1],"split_conditions":[4.24E1,1.67E1,1.83E1,3.78E1,5.6002934E-2,1.8E1,4.6E1,3.639673E-2,-2.6526147E-2,-5.0714165E-2,-1.6304215E-2,4.711328E-2,-4.338224E-2],"split_indices":[0,1,1,0,0,1,0,0,0,0,0,0,0],"split_type":[0,0,0,0,0,0,0,0,0,0,0,0,0],"sum_hessian":[5.0727417E1,2.72489E1,2.347852E1,2.6871667E0,2.4561731E1,1.6289047E1,7.1894736E0,1.467242E0,1.2199246E0,1.4858555E1,1.4304924E0,3.216669E0,3.9728043E0],"tree_param":{"num_deleted":"0","num_feature":"10","num_nodes":"13","size_leaf_vector":"1"}},{"base_weights":[-1.5009272E-1,-5.1544636E-2,2.2382955E-1,-4.592418E-2,4.604073E-1,1.5035214E-2,5.4292727E-2],"categories":[],"categories_nodes":[],"categories_segments":[],"categories_sizes":[],"default_left":[0,0,0,0,0,0,0],"id":55,"left_children":[1,-1,3,-1,5,-1,-1],"loss_changes":[6.151043E0,0E0,3.852508E0,0E0,3.5933113E-1,0E0,0E0],"parents":[2147483647,0,0,2,2,4,4],"right_children":[2,-1,4,-1,6,-1,-1],"split_conditions":[1E0,-5.1544636E-2,4.09E1,-4.592418E-2,4.44E1,1.5035214E-2,5.4292727E-2],"split_indices":[8,0,0,0,0,0,0],"split_type":[0,0,0,0,0,0,0],"sum_hessian":[4.318051E1,2.1649061E1,2.1531448E1,5.2968E0,1.6234648E1,4.005743E0,1.2228905E1],"tree_param":{"num_deleted":"0","num_feature":"10","num_nodes":"7","size_leaf_vector":"1"}},{"base_weights":[1.3244393E-2,-5.1720273E-2,5.0382113E-1,5.5540454E-2,-2.9915392E-2],"categories":[],"categories_nodes":[],"categories_segments":[],"categories_sizes":[],"default_left":[0,0,0,0,0],"id":56,"left_children":[1,-1,3,-1,-1],"loss_changes":[1.2368186E1,0E0,1.1883478E0,0E0,0E0],"parents":[2147483647,0,0,2,2],"right_children":[2,-1,4,-1,-1],"split_conditions":[2.08E2,-5.1720273E-2,1.75E1,5.5540454E-2,-2.9915392E-2],"split_indices":[2,0,1,0,0],"split_type":[0,0,0,0,0],"sum_hessian":[4.5527454E1,2.184874E1,2.3678715E1,2.2539112E1,1.1396035E0],"tree_param":{"num_deleted":"0","num_feature":"10","num_nodes":"5","size_leaf_vector":"1"}},{"base_weights":[1.1420518E-1,5.0677437E-1,-3.4330466E-1,7.4090905E-2,5.505822E-2,-4.8127228E-1,-1.4756172E-2,3.500707E-2,-2.6012046E-2,-5.011638E-2,-1.5717594E-2,4.549423E-2,-4.2410772E-2],"categories":[],"categories_nodes":[],"categories_segments":[],"categories_sizes":[],"default_left":[0,0,0,0,0,0,0,0,0,0,0,0,0],"id":57,"left_children":[1,3,5,7,-1,9,11,-1,-1,-1,-1,-1,-1],"loss_changes":[8.831153E0,4.5858717E-1,1.0289252E0,4.2104906E-1,0E0,2.4794817E-2,1.6909307E0,0E0,0E0,0E0,0E0,0E0,0E0],"parents":[2147483647,0,0,1,1,2,2,3,3,5,5,6,6],"right_children":[2,4,6,8,-1,10,12,-1,-1,-1,-1,-1,-1],"split_conditions":[4.24E1,1.67E1,1.83E1,3.78E1,5.505822E-2,1.8E1,4.6E1,3.500707E-2,-2.6012046E-2,-5.011638E-2,-1.5717594E-2,4.549423E-2,-4.2410772E-2],"split_indices":[0,1,1,0,0,1,0,0,0,0,0,0,0],"split_type":[0,0,0,0,0,0,0,0,0,0,0,0,0],"sum_hessian":[4.720139E1,2.5345688E1,2.1855703E1,2.5776708E0,2.2768017E1,1.5064722E1,6.7909822E0,1.3858403E0,1.1918304E0,1.3678837E1,1.3858852E0,3.1105266E0,3.6804557E0],"tree_param":{"num_deleted":"0","num_feature":"10","num_nodes":"13","size_leaf_vector":"1"}},{"base_weights":[-1.4588332E-1,-5.1018532E-2,2.198763E-1,-4.49946E-2,4.480905E-1,5.257185E-2,1.1844771E-2],"categories":[],"categories_nodes":[],"categories_segments":[],"categories_sizes":[],"default_left":[0,0,0,0,0,0,0],"id":58,"left_children":[1,-1,3,-1,5,-1,-1],"loss_changes":[5.5934644E0,0E0,3.4462714E0,0E0,3.5568094E-1,0E0,0E0],"parents":[2147483647,0,0,2,2,4,4],"right_children":[2,-1,4,-1,6,-1,-1],"split_conditions":[1E0,-5.1018532E-2,4.09E1,-4.49946E-2,4.075E3,5.257185E-2,1.1844771E-2],"split_indices":[8,0,0,0,3,0,0],"split_type":[0,0,0,0,0,0,0],"sum_hessian":[4.01363E1,1.991039E1,2.0225908E1,4.8930163E0,1.5332891E1,1.192892E1,3.4039707E0],"tree_param":{"num_deleted":"0","num_feature":"10","num_nodes":"7","size_leaf_vector":"1"}},{"base_weights":[1.1524737E-2,-5.1201727E-2,4.9356785E-1,5.4582305E-2,-2.906017E-2],"categories":[],"categories_nodes":[],"categories_segments":[],"categories_sizes":[],"default_left":[0,0,0,0,0],"id":59,"left_children":[1,-1,3,-1,-1],"loss_changes":[1.1119547E1,0E0,1.0981054E0,0E0,0E0],"parents":[2147483647,0,0,2,2],"right_children":[2,-1,4,-1,-1],"split_conditions":[2.08E2,-5.1201727E-2,1.75E1,5.4582305E-2,-2.906017E-2],"split_indices":[2,0,1,0,0],"split_type":[0,0,0,0,0],"sum_hessian":[4.2059162E1,2.0131916E1,2.1927244E1,2.084231E1,1.0849348E0],"tree_param":{"num_deleted":"0","num_feature":"10","num_nodes":"5","size_leaf_vector":"1"}},{"base_weights":[1.1240409E-1,4.9691764E-1,-3.3506757E-1,6.693966E-2,5.4200377E-2,-4.7408503E-1,-1.1795776E-2,3.36775E-2,-2.5165355E-2,-4.950398E-2,-1.5019909E-2,4.3953527E-2,-4.158062E-2],"categories":[],"categories_nodes":[],"categories_segments":[],"categories_sizes":[],"default_left":[0,0,0,0,0,0,0,0,0,0,0,0,0],"id":60,"left_children":[1,3,5,7,-1,9,11,-1,-1,-1,-1,-1,-1],"loss_changes":[7.8974442E0,4.4000912E-1,9.54479E-1,3.832831E-1,0E0,2.6862383E-2,1.5411682E0,0E0,0E0,0E0,0E0,0E0,0E0],"parents":[2147483647,0,0,1,1,2,2,3,3,5,5,6,6],"right_children":[2,4,6,8,-1,10,12,-1,-1,-1,-1,-1,-1],"split_conditions":[4.24E1,1.67E1,1.83E1,3.78E1,5.4200377E-2,1.8E1,4.6E1,3.36775E-2,-2.5165355E-2,-4.950398E-2,-1.5019909E-2,4.3953527E-2,-4.158062E-2],"split_indices":[0,1,1,0,0,1,0,0,0,0,0,0,0],"split_type":[0,0,0,0,0,0,0,0,0,0,0,0,0],"sum_hessian":[4.3931953E1,2.356876E1,2.0363195E1,2.472612E0,2.1096148E1,1.391344E1,6.4497557E0,1.3078489E0,1.1647631E0,1.2571641E1,1.3417989E0,3.0049329E0,3.4448225E0],"tree_param":{"num_deleted":"0","num_feature":"10","num_nodes":"13","size_leaf_vector":"1"}},{"base_weights":[-1.4157704E-1,-5.051095E-2,2.1530484E-1,-4.4071898E-2,4.3439943E-1,1.2992198E-2,5.2408196E-2],"categories":[],"categories_nodes":[],"categories_segments":[],"categories_sizes":[],"default_left":[0,0,0,0,0,0,0],"id":61,"left_children":[1,-1,3,-1,5,-1,-1],"loss_changes":[5.0860267E0,0E0,3.0747285E0,0E0,3.5629225E-1,0E0,0E0],"parents":[2147483647,0,0,2,2,4,4],"right_children":[2,-1,4,-1,6,-1,-1],"split_conditions":[1E0,-5.051095E-2,4.09E1,-4.4071898E-2,4.44E1,1.2992198E-2,5.2408196E-2],"split_indices":[8,0,0,0,0,0,0],"split_type":[0,0,0,0,0,0,0],"sum_hessian":[3.7364E1,1.830378E1,1.9060217E1,4.5186634E0,1.4541553E1,3.8657596E0,1.0675794E1],"tree_param":{"num_deleted":"0","num_feature":"10","num_nodes":"7","size_leaf_vector":"1"}},{"base_weights":[9.560651E-3,-5.06948E-2,4.831982E-1,5.3698655E-2,-2.846018E-2],"categories":[],"categories_nodes":[],"categories_segments":[],"categories_sizes":[],"default_left":[0,0,0,0,0],"id":62,"left_children":[1,-1,3,-1,-1],"loss_changes":[9.992137E0,0E0,1.0323329E0,0E0,0E0],"parents":[2147483647,0,0,2,2],"right_children":[2,-1,4,-1,-1],"split_conditions":[2.08E2,-5.06948E-2,1.75E1,5.3698655E-2,-2.846018E-2],"split_indices":[2,0,1,0,0],"split_type":[0,0,0,0,0],"sum_hessian":[3.88433E1,1.8547094E1,2.0296206E1,1.9248375E1,1.0478306E0],"tree_param":{"num_deleted":"0","num_feature":"10","num_nodes":"5","size_leaf_vector":"1"}},{"base_weights":[1.10497005E-1,4.8717377E-1,-3.269421E-1,5.7967216E-2,5.339705E-2,-4.6743068E-1,-6.168484E-3,3.2402325E-2,-2.4702353E-2,-4.8930902E-2,-1.4484057E-2,4.2520307E-2,-4.0619195E-2],"categories":[],"categories_nodes":[],"categories_segments":[],"categories_sizes":[],"default_left":[0,0,0,0,0,0,0,0,0,0,0,0,0],"id":63,"left_children":[1,3,5,7,-1,9,11,-1,-1,-1,-1,-1,-1],"loss_changes":[7.054592E0,4.2874146E-1,8.966336E-1,3.536474E-1,0E0,2.7002335E-2,1.3966389E0,0E0,0E0,0E0,0E0,0E0,0E0],"parents":[2147483647,0,0,1,1,2,2,3,3,5,5,6,6],"right_children":[2,4,6,8,-1,10,12,-1,-1,-1,-1,-1,-1],"split_conditions":[4.24E1,1.67E1,1.83E1,3.78E1,5.339705E-2,1.8E1,4.6E1,3.2402325E-2,-2.4702353E-2,-4.8930902E-2,-1.4484057E-2,4.2520307E-2,-4.0619195E-2],"split_indices":[0,1,1,0,0,1,0,0,0,0,0,0,0],"split_type":[0,0,0,0,0,0,0,0,0,0,0,0,0],"sum_hessian":[4.0847324E1,2.1886913E1,1.8960413E1,2.3718321E0,1.9515081E1,1.2867612E1,6.092801E0,1.2334442E0,1.1383879E0,1.1566358E1,1.3012539E0,2.9012487E0,3.1915524E0],"tree_param":{"num_deleted":"0","num_feature":"10","num_nodes":"13","size_leaf_vector":"1"}},{"base_weights":[-1.3749154E-1,-5.0017405E-2,2.1175478E-1,-4.315239E-2,4.2327395E-1,5.0380018E-2,9.63001E-3],"categories":[],"categories_nodes":[],"categories_segments":[],"categories_sizes":[],"default_left":[0,0,0,0,0,0,0],"id":64,"left_children":[1,-1,3,-1,5,-1,-1],"loss_changes":[4.630767E0,0E0,2.7544422E0,0E0,3.3929396E-1,0E0,0E0],"parents":[2147483647,0,0,2,2,4,4],"right_children":[2,-1,4,-1,6,-1,-1],"split_conditions":[1E0,-5.0017405E-2,4.09E1,-4.315239E-2,4.075E3,5.0380018E-2,9.63001E-3],"split_indices":[8,0,0,0,3,0,0],"split_type":[0,0,0,0,0,0,0],"sum_hessian":[3.472284E1,1.682176E1,1.7901077E1,4.1722336E0,1.3728844E1,1.0581954E1,3.14689E0],"tree_param":{"num_deleted":"0","num_feature":"10","num_nodes":"7","size_leaf_vector":"1"}},{"base_weights":[7.8070373E-3,-5.021012E-2,4.7408676E-1,5.2819807E-2,-1.464017E-2],"categories":[],"categories_nodes":[],"categories_segments":[],"categories_sizes":[],"default_left":[0,0,0,0,0],"id":65,"left_children":[1,-1,3,-1,-1],"loss_changes":[8.996229E0,0E0,7.406335E-1,0E0,0E0],"parents":[2147483647,0,0,2,2],"right_children":[2,-1,4,-1,-1],"split_conditions":[2.08E2,-5.021012E-2,1.71E1,5.2819807E-2,-1.464017E-2],"split_indices":[2,0,1,0,0],"split_type":[0,0,0,0,0],"sum_hessian":[3.583628E1,1.7080635E1,1.8755646E1,1.7388018E1,1.3676292E0],"tree_param":{"num_deleted":"0","num_feature":"10","num_nodes":"5","size_leaf_vector":"1"}},{"base_weights":[1.08734325E-1,4.0636972E-1,-4.2334077E-1,-3.1288307E-2,4.6170443E-1,-4.7944415E-2,-1.6831428E-1,1.1471211E-2,4.9536165E-2,1.9794323E-2,-3.597312E-2],"categories":[],"categories_nodes":[],"categories_segments":[],"categories_sizes":[],"default_left":[0,0,0,0,0,0,0,0,0,0,0],"id":66,"left_children":[1,3,5,-1,7,-1,9,-1,-1,-1,-1],"loss_changes":[6.3512363E0,1.1606321E0,1.2657642E-1,0E0,2.2477722E-1,0E0,3.6238134E-1,0E0,0E0,0E0,0E0],"parents":[2147483647,0,0,1,1,2,2,4,4,6,6],"right_children":[2,4,6,-1,8,-1,10,-1,-1,-1,-1],"split_conditions":[4.44E1,1.53E1,1.89E1,-3.1288307E-2,1.68E1,-4.7944415E-2,4.6E1,1.1471211E-2,4.9536165E-2,1.9794323E-2,-3.597312E-2],"split_indices":[0,1,1,0,1,0,0,0,0,0,0],"split_type":[0,0,0,0,0,0,0,0,0,0,0],"sum_hessian":[3.8018898E1,2.453219E1,1.348671E1,1.4200251E0,2.3112164E1,1.03334675E1,3.1532426E0,2.433368E0,2.0678797E1,1.0706204E0,2.082622E0],"tree_param":{"num_deleted":"0","num_feature":"10","num_nodes":"11","size_leaf_vector":"1"}},{"base_weights":[-1.3330474E-1,-4.9537506E-2,2.0762849E-1,-4.2232733E-2,4.1072667E-1,1.118752E-2,5.075713E-2],"categories":[],"categories_nodes":[],"categories_segments":[],"categories_sizes":[],"default_left":[0,0,0,0,0,0,0],"id":67,"left_children":[1,-1,3,-1,5,-1,-1],"loss_changes":[4.219289E0,0E0,2.4610243E0,0E0,3.492012E-1,0E0,0E0],"parents":[2147483647,0,0,2,2,4,4],"right_children":[2,-1,4,-1,6,-1,-1],"split_conditions":[1E0,-4.9537506E-2,4.09E1,-4.2232733E-2,4.44E1,1.118752E-2,5.075713E-2],"split_indices":[8,0,0,0,0,0,0],"split_type":[0,0,0,0,0,0,0],"sum_hessian":[3.2347176E1,1.546761E1,1.6879564E1,3.8520668E0,1.3027497E1,3.7158892E0,9.311608E0],"tree_param":{"num_deleted":"0","num_feature":"10","num_nodes":"7","size_leaf_vector":"1"}},{"base_weights":[5.943572E-3,-4.9729206E-2,4.641498E-1,5.204637E-2,-1.4533154E-2],"categories":[],"categories_nodes":[],"categories_segments":[],"categories_sizes":[],"default_left":[0,0,0,0,0],"id":68,"left_children":[1,-1,3,-1,-1],"loss_changes":[8.092532E0,0E0,7.0589685E-1,0E0,0E0],"parents":[2147483647,0,0,2,2],"right_children":[2,-1,4,-1,-1],"split_conditions":[2.08E2,-4.9729206E-2,1.71E1,5.204637E-2,-1.4533154E-2],"split_indices":[2,0,1,0,0],"split_type":[0,0,0,0,0],"sum_hessian":[3.3094543E1,1.5731623E1,1.736292E1,1.6028042E1,1.3348794E0],"tree_param":{"num_deleted":"0","num_feature":"10","num_nodes":"5","size_leaf_vector":"1"}},{"base_weights":[1.05983876E-1,4.695638E-1,-3.1315574E-1,4.291977E-2,5.198853E-2,-4.5618248E-1,2.0958874E-3,3.0283084E-2,-2.4157073E-2,-4.78787E-2,-1.3885843E-2,4.001404E-2,-3.8850155E-2],"categories":[],"categories_nodes":[],"categories_segments":[],"categories_sizes":[],"default_left":[0,0,0,0,0,0,0,0,0,0,0,0,0],"id":69,"left_children":[1,3,5,7,-1,9,11,-1,-1,-1,-1,-1,-1],"loss_changes":[5.703188E0,4.0544224E-1,7.91636E-1,3.091814E-1,0E0,2.0076275E-2,1.1611123E0,0E0,0E0,0E0,0E0,0E0,0E0],"parents":[2147483647,0,0,1,1,2,2,3,3,5,5,6,6],"right_children":[2,4,6,8,-1,10,12,-1,-1,-1,-1,-1,-1],"split_conditions":[4.24E1,1.67E1,1.83E1,3.78E1,5.198853E-2,1.8E1,4.6E1,3.0283084E-2,-2.4157073E-2,-4.78787E-2,-1.3885843E-2,4.001404E-2,-3.8850155E-2],"split_indices":[0,1,1,0,0,1,0,0,0,0,0,0,0],"split_type":[0,0,0,0,0,0,0,0,0,0,0,0,0],"sum_hessian":[3.5459835E1,1.8924017E1,1.653582E1,2.1920366E0,1.6731981E1,1.1067537E1,5.4682817E0,1.1118138E0,1.0802227E0,9.856579E0,1.2109585E0,2.696222E0,2.7720594E0],"tree_param":{"num_deleted":"0","num_feature":"10","num_nodes":"13","size_leaf_vector":"1"}},{"base_weights":[-1.2854457E-1,-4.907318E-2,2.056603E-1,-4.137001E-2,4.0273225E-1,4.8618816E-2,7.798161E-3],"categories":[],"categories_nodes":[],"categories_segments":[],"categories_sizes":[],"default_left":[0,0,0,0,0,0,0],"id":70,"left_children":[1,-1,3,-1,5,-1,-1],"loss_changes":[3.8693562E0,0E0,2.2289653E0,0E0,3.2321572E-1,0E0,0E0],"parents":[2147483647,0,0,2,2,4,4],"right_children":[2,-1,4,-1,6,-1,-1],"split_conditions":[1E0,-4.907318E-2,4.09E1,-4.137001E-2,4.075E3,4.8618816E-2,7.798161E-3],"split_indices":[8,0,0,0,3,0,0],"split_type":[0,0,0,0,0,0,0],"sum_hessian":[3.0132559E1,1.423612E1,1.5896439E1,3.5717769E0,1.2324662E1,9.409464E0,2.9151983E0],"tree_param":{"num_deleted":"0","num_feature":"10","num_nodes":"7","size_leaf_vector":"1"}},{"base_weights":[4.3641534E-3,-4.9272474E-2,4.560808E-1,5.132251E-2,-1.39390975E-2],"categories":[],"categories_nodes":[],"categories_segments":[],"categories_sizes":[],"default_left":[0,0,0,0,0],"id":71,"left_children":[1,-1,3,-1,-1],"loss_changes":[7.3130994E0,0E0,6.519885E-1,0E0,0E0],"parents":[2147483647,0,0,2,2],"right_children":[2,-1,4,-1,-1],"split_conditions":[2.08E2,-4.9272474E-2,1.71E1,5.132251E-2,-1.39390975E-2],"split_indices":[2,0,1,0,0],"split_type":[0,0,0,0,0],"sum_hessian":[3.0567974E1,1.4509881E1,1.6058094E1,1.4778043E1,1.2800505E0],"tree_param":{"num_deleted":"0","num_feature":"10","num_nodes":"5","size_leaf_vector":"1"}},{"base_weights":[1.0433553E-1,3.8881558E-1,-4.1116196E-1,-7.6055415E-2,4.7832653E-1,-1.5898879E-1,-4.692082E-2,3.497342E-2,-4.205445E-2,5.1225144E-2,2.0229004E-2,-3.3862747E-2,1.7535277E-2],"categories":[],"categories_nodes":[],"categories_segments":[],"categories_sizes":[],"default_left":[0,0,0,0,0,0,0,0,0,0,0,0,0],"id":72,"left_children":[1,3,5,7,9,11,-1,-1,-1,-1,-1,-1,-1],"loss_changes":[5.148004E0,9.6981335E-1,1.09570265E-1,8.049024E-1,7.381153E-2,2.9161784E-1,0E0,0E0,0E0,0E0,0E0,0E0,0E0],"parents":[2147483647,0,0,1,1,2,2,3,3,4,4,5,5],"right_children":[2,4,6,8,10,12,-1,-1,-1,-1,-1,-1,-1],"split_conditions":[4.44E1,1.68E1,4.6E1,3.96E1,4.24E1,1.79E1,-4.692082E-2,3.497342E-2,-4.205445E-2,5.1225144E-2,2.0229004E-2,-3.3862747E-2,1.7535277E-2],"split_indices":[0,1,0,0,0,1,0,0,0,0,0,0,0],"split_type":[0,0,0,0,0,0,0,0,0,0,0,0,0],"sum_hessian":[3.3014183E1,2.1432365E1,1.1581819E1,3.4847572E0,1.7947607E1,2.8667326E0,8.715086E0,1.5516666E0,1.9330907E0,1.5221185E1,2.7264228E0,1.8564565E0,1.0102761E0],"tree_param":{"num_deleted":"0","num_feature":"10","num_nodes":"13","size_leaf_vector":"1"}},{"base_weights":[-1.24429114E-1,-4.8602637E-2,2.0171465E-1,-4.0444627E-2,3.9093396E-1,1.047037E-2,4.9242124E-2],"categories":[],"categories_nodes":[],"categories_segments":[],"categories_sizes":[],"default_left":[0,0,0,0,0,0,0],"id":73,"left_children":[1,-1,3,-1,5,-1,-1],"loss_changes":[3.5291E0,0E0,1.9936461E0,0E0,3.174951E-1,0E0,0E0],"parents":[2147483647,0,0,2,2,4,4],"right_children":[2,-1,4,-1,6,-1,-1],"split_conditions":[1E0,-4.8602637E-2,4.09E1,-4.0444627E-2,4.44E1,1.047037E-2,4.9242124E-2],"split_indices":[8,0,0,0,0,0,0],"split_type":[0,0,0,0,0,0,0],"sum_hessian":[2.809339E1,1.3090104E1,1.5003284E1,3.298654E0,1.1704631E1,3.595561E0,8.10907E0],"tree_param":{"num_deleted":"0","num_feature":"10","num_nodes":"7","size_leaf_vector":"1"}},{"base_weights":[2.4359424E-3,-4.8803266E-2,4.4665793E-1,5.062386E-2,-1.385609E-2],"categories":[],"categories_nodes":[],"categories_segments":[],"categories_sizes":[],"default_left":[0,0,0,0,0],"id":74,"left_children":[1,-1,3,-1,-1],"loss_changes":[6.5843396E0,0E0,6.22972E-1,0E0,0E0],"parents":[2147483647,0,0,2,2],"right_children":[2,-1,4,-1,-1],"split_conditions":[2.08E2,-4.8803266E-2,1.71E1,5.062386E-2,-1.385609E-2],"split_indices":[2,0,1,0,0],"split_type":[0,0,0,0,0],"sum_hessian":[2.8219967E1,1.3364978E1,1.4854988E1,1.3604848E1,1.25014E0],"tree_param":{"num_deleted":"0","num_feature":"10","num_nodes":"5","size_leaf_vector":"1"}},{"base_weights":[1.0241069E-1,3.8000718E-1,-4.04385E-1,-7.818903E-2,4.6937317E-1,-4.6238896E-2,-1.5013726E-1,3.376812E-2,-4.1181214E-2,5.059104E-2,1.9249678E-2,1.3707766E-2,-3.2229815E-2],"categories":[],"categories_nodes":[],"categories_segments":[],"categories_sizes":[],"default_left":[0,0,0,0,0,0,0,0,0,0,0,0,0],"id":75,"left_children":[1,3,5,7,9,-1,11,-1,-1,-1,-1,-1,-1],"loss_changes":[4.619416E0,8.975997E-1,1.0339224E-1,7.34075E-1,8.203745E-2,0E0,2.2503857E-1,0E0,0E0,0E0,0E0,0E0,0E0],"parents":[2147483647,0,0,1,1,2,2,3,3,4,4,6,6],"right_children":[2,4,6,8,10,-1,12,-1,-1,-1,-1,-1,-1],"split_conditions":[4.44E1,1.68E1,1.89E1,3.96E1,4.24E1,-4.6238896E-2,4.61E1,3.376812E-2,-4.1181214E-2,5.059104E-2,1.9249678E-2,1.3707766E-2,-3.2229815E-2],"split_indices":[0,1,1,0,0,0,0,0,0,0,0,0,0],"split_type":[0,0,0,0,0,0,0,0,0,0,0,0,0],"sum_hessian":[3.0742949E1,2.0024654E1,1.0718294E1,3.288576E0,1.6736078E1,8.060679E0,2.6576147E0,1.4584343E0,1.8301417E0,1.4054241E1,2.681837E0,1.0723693E0,1.5852453E0],"tree_param":{"num_deleted":"0","num_feature":"10","num_nodes":"13","size_leaf_vector":"1"}},{"base_weights":[-1.2086814E-1,-4.813427E-2,1.9800699E-1,-3.9528172E-2,3.8070706E-1,4.6789534E-2,5.789334E-3],"categories":[],"categories_nodes":[],"categories_segments":[],"categories_sizes":[],"default_left":[0,0,0,0,0,0,0],"id":76,"left_children":[1,-1,3,-1,5,-1,-1],"loss_changes":[3.216597E0,0E0,1.7890842E0,0E0,3.125521E-1,0E0,0E0],"parents":[2147483647,0,0,2,2,4,4],"right_children":[2,-1,4,-1,6,-1,-1],"split_conditions":[1E0,-4.813427E-2,4.09E1,-3.9528172E-2,4.075E3,4.6789534E-2,5.789334E-3],"split_indices":[8,0,0,0,3,0,0],"split_type":[0,0,0,0,0,0,0],"sum_hessian":[2.6154295E1,1.2037228E1,1.4117067E1,3.0497959E0,1.1067271E1,8.359923E0,2.7073483E0],"tree_param":{"num_deleted":"0","num_feature":"10","num_nodes":"7","size_leaf_vector":"1"}},{"base_weights":[1.1558102E-3,-4.8345476E-2,4.3882015E-1,4.9960297E-2,-1.3357537E-2],"categories":[],"categories_nodes":[],"categories_segments":[],"categories_sizes":[],"default_left":[0,0,0,0,0],"id":77,"left_children":[1,-1,3,-1,-1],"loss_changes":[5.9502945E0,0E0,5.795641E-1,0E0,0E0],"parents":[2147483647,0,0,2,2],"right_children":[2,-1,4,-1,-1],"split_conditions":[2.08E2,-4.8345476E-2,1.71E1,4.9960297E-2,-1.3357537E-2],"split_indices":[2,0,1,0,0],"split_type":[0,0,0,0,0],"sum_hessian":[2.605437E1,1.2314418E1,1.3739953E1,1.2535932E1,1.2040212E0],"tree_param":{"num_deleted":"0","num_feature":"10","num_nodes":"5","size_leaf_vector":"1"}},{"base_weights":[1.0077312E-1,3.7314886E-1,-3.9806938E-1,-7.773942E-2,4.6193105E-1,-1.4403825E-1,-4.5775924E-2,3.260245E-2,-4.001552E-2,4.99947E-2,1.8746397E-2,-3.127065E-2,1.3792112E-2],"categories":[],"categories_nodes":[],"categories_segments":[],"categories_sizes":[],"default_left":[0,0,0,0,0,0,0,0,0,0,0,0,0],"id":78,"left_children":[1,3,5,7,9,11,-1,-1,-1,-1,-1,-1,-1],"loss_changes":[4.1802588E0,8.2488775E-1,1.0030663E-1,6.639833E-1,7.959795E-2,2.117253E-1,0E0,0E0,0E0,0E0,0E0,0E0,0E0],"parents":[2147483647,0,0,1,1,2,2,3,3,4,4,5,5],"right_children":[2,4,6,8,10,12,-1,-1,-1,-1,-1,-1,-1],"split_conditions":[4.44E1,1.68E1,4.6E1,3.96E1,4.24E1,1.75E1,-4.5775924E-2,3.260245E-2,-4.001552E-2,4.99947E-2,1.8746397E-2,-3.127065E-2,1.3792112E-2],"split_indices":[0,1,0,0,0,1,0,0,0,0,0,0,0],"split_type":[0,0,0,0,0,0,0,0,0,0,0,0,0],"sum_hessian":[2.8672796E1,1.8709234E1,9.963562E0,3.098353E0,1.5610882E1,2.545102E0,7.4184604E0,1.3706651E0,1.7276878E0,1.2990125E1,2.6207569E0,1.5242479E0,1.0208539E0],"tree_param":{"num_deleted":"0","num_feature":"10","num_nodes":"13","size_leaf_vector":"1"}},{"base_weights":[-1.167802E-1,-4.7664814E-2,1.9388816E-1,-3.8607355E-2,3.6911708E-1,9.234947E-3,4.7788884E-2],"categories":[],"categories_nodes":[],"categories_segments":[],"categories_sizes":[],"default_left":[0,0,0,0,0,0,0],"id":79,"left_children":[1,-1,3,-1,5,-1,-1],"loss_changes":[2.9359639E0,0E0,1.6019696E0,0E0,3.0327618E-1,0E0,0E0],"parents":[2147483647,0,0,2,2,4,4],"right_children":[2,-1,4,-1,6,-1,-1],"split_conditions":[1E0,-4.7664814E-2,4.09E1,-3.8607355E-2,4.44E1,9.234947E-3,4.7788884E-2],"split_indices":[8,0,0,0,0,0,0],"split_type":[0,0,0,0,0,0,0],"sum_hessian":[2.4434328E1,1.10732155E1,1.3361113E1,2.821021E0,1.05400915E1,3.4953256E0,7.044766E0],"tree_param":{"num_deleted":"0","num_feature":"10","num_nodes":"7","size_leaf_vector":"1"}},{"base_weights":[-7.975091E-4,-4.7882047E-2,4.3005192E-1,4.930858E-2,-1.3175416E-2],"categories":[],"categories_nodes":[],"categories_segments":[],"categories_sizes":[],"default_left":[0,0,0,0,0],"id":80,"left_children":[1,-1,3,-1,-1],"loss_changes":[5.3673215E0,0E0,5.503893E-1,0E0,0E0],"parents":[2147483647,0,0,2,2],"right_children":[2,-1,4,-1,-1],"split_conditions":[2.08E2,-4.7882047E-2,1.71E1,4.930858E-2,-1.3175416E-2],"split_indices":[2,0,1,0,0],"split_type":[0,0,0,0,0],"sum_hessian":[2.406072E1,1.1353164E1,1.2707558E1,1.15356E1,1.1719579E0],"tree_param":{"num_deleted":"0","num_feature":"10","num_nodes":"5","size_leaf_vector":"1"}},{"base_weights":[9.879531E-2,3.6453408E-1,-3.9127082E-1,-7.983789E-2,4.5318714E-1,-1.3846044E-1,-4.515888E-2,3.147393E-2,-3.9168555E-2,4.940286E-2,1.784163E-2,9.42101E-3,-2.9204592E-2],"categories":[],"categories_nodes":[],"categories_segments":[],"categories_sizes":[],"default_left":[0,0,0,0,0,0,0,0,0,0,0,0,0],"id":81,"left_children":[1,3,5,7,9,11,-1,-1,-1,-1,-1,-1,-1],"loss_changes":[3.754722E0,7.650666E-1,9.353626E-2,6.065476E-1,8.663511E-2,1.4949894E-1,0E0,0E0,0E0,0E0,0E0,0E0,0E0],"parents":[2147483647,0,0,1,1,2,2,3,3,4,4,5,5],"right_children":[2,4,6,8,10,12,-1,-1,-1,-1,-1,-1,-1],"split_conditions":[4.44E1,1.68E1,4.6E1,3.96E1,4.24E1,1.98E2,-4.515888E-2,3.147393E-2,-3.9168555E-2,4.940286E-2,1.784163E-2,9.42101E-3,-2.9204592E-2],"split_indices":[0,1,0,0,0,2,0,0,0,0,0,0,0],"split_type":[0,0,0,0,0,0,0,0,0,0,0,0,0],"sum_hessian":[2.6736332E1,1.7502007E1,9.234325E0,2.9274824E0,1.4574525E1,2.4136248E0,6.8207006E0,1.2882289E0,1.6392535E0,1.199382E1,2.580705E0,1.1134406E0,1.3001842E0],"tree_param":{"num_deleted":"0","num_feature":"10","num_nodes":"13","size_leaf_vector":"1"}},{"base_weights":[-1.1319949E-1,-4.71897E-2,1.9034229E-1,-3.768212E-2,3.5945535E-1,4.5109943E-2,3.7878712E-3],"categories":[],"categories_nodes":[],"categories_segments":[],"categories_sizes":[],"default_left":[0,0,0,0,0,0,0],"id":82,"left_children":[1,-1,3,-1,5,-1,-1],"loss_changes":[2.679441E0,0E0,1.4394257E0,0E0,3.0662715E-1,0E0,0E0],"parents":[2147483647,0,0,2,2,4,4],"right_children":[2,-1,4,-1,6,-1,-1],"split_conditions":[1E0,-4.71897E-2,4.09E1,-3.768212E-2,4.075E3,4.5109943E-2,3.7878712E-3],"split_indices":[8,0,0,0,3,0,0],"split_type":[0,0,0,0,0,0,0],"sum_hessian":[2.278423E1,1.0189081E1,1.2595147E1,2.610834E0,9.984313E0,7.456546E0,2.5277674E0],"tree_param":{"num_deleted":"0","num_feature":"10","num_nodes":"7","size_leaf_vector":"1"}},{"base_weights":[-2.0605817E-3,-4.7419917E-2,4.2251766E-1,4.868185E-2,-1.2702783E-2],"categories":[],"categories_nodes":[],"categories_segments":[],"categories_sizes":[],"default_left":[0,0,0,0,0],"id":83,"left_children":[1,-1,3,-1,-1],"loss_changes":[4.8560596E0,0E0,5.1263404E-1,0E0,0E0],"parents":[2147483647,0,0,2,2],"right_children":[2,-1,4,-1,-1],"split_conditions":[2.08E2,-4.7419917E-2,1.71E1,4.868185E-2,-1.2702783E-2],"split_indices":[2,0,1,0,0],"split_type":[0,0,0,0,0],"sum_hessian":[2.2225122E1,1.04678335E1,1.1757289E1,1.0627892E1,1.1293973E0],"tree_param":{"num_deleted":"0","num_feature":"10","num_nodes":"5","size_leaf_vector":"1"}},{"base_weights":[9.716021E-2,3.5800776E-1,-3.8491312E-1,-7.921271E-2,4.4602555E-1,-1.3341141E-1,-4.4574838E-2,3.038062E-2,-3.8026985E-2,4.884055E-2,1.7404435E-2,8.997995E-3,-2.8296417E-2],"categories":[],"categories_nodes":[],"categories_segments":[],"categories_sizes":[],"default_left":[0,0,0,0,0,0,0,0,0,0,0,0,0],"id":84,"left_children":[1,3,5,7,9,11,-1,-1,-1,-1,-1,-1,-1],"loss_changes":[3.4043326E0,7.039461E-1,8.74542E-2,5.4917735E-1,8.3438635E-2,1.3562627E-1,0E0,0E0,0E0,0E0,0E0,0E0,0E0],"parents":[2147483647,0,0,1,1,2,2,3,3,4,4,5,5],"right_children":[2,4,6,8,10,12,-1,-1,-1,-1,-1,-1,-1],"split_conditions":[4.44E1,1.68E1,4.6E1,3.96E1,4.24E1,1.98E2,-4.4574838E-2,3.038062E-2,-3.8026985E-2,4.884055E-2,1.7404435E-2,8.997995E-3,-2.8296417E-2],"split_indices":[0,1,0,0,0,2,0,0,0,0,0,0,0],"split_type":[0,0,0,0,0,0,0,0,0,0,0,0,0],"sum_hessian":[2.4976873E1,1.637422E1,8.6026535E0,2.7607045E0,1.3613515E1,2.2974906E0,6.3051624E0,1.2109483E0,1.5497562E0,1.1089782E1,2.5237336E0,1.0810436E0,1.216447E0],"tree_param":{"num_deleted":"0","num_feature":"10","num_nodes":"13","size_leaf_vector":"1"}},{"base_weights":[-1.0953592E-1,-4.6709027E-2,1.8591894E-1,-3.675312E-2,3.4813192E-1,4.4074096E-2,3.2470424E-3],"categories":[],"categories_nodes":[],"categories_segments":[],"categories_sizes":[],"default_left":[0,0,0,0,0,0,0],"id":85,"left_children":[1,-1,3,-1,5,-1,-1],"loss_changes":[2.4440706E0,0E0,1.2890368E0,0E0,2.930802E-1,0E0,0E0],"parents":[2147483647,0,0,2,2,4,4],"right_children":[2,-1,4,-1,6,-1,-1],"split_conditions":[1E0,-4.6709027E-2,4.09E1,-3.675312E-2,4.075E3,4.4074096E-2,3.2470424E-3],"split_indices":[8,0,0,0,3,0,0],"split_type":[0,0,0,0,0,0,0],"sum_hessian":[2.131355E1,9.380506E0,1.1933044E1,2.4178646E0,9.51518E0,7.0504637E0,2.4647164E0],"tree_param":{"num_deleted":"0","num_feature":"10","num_nodes":"7","size_leaf_vector":"1"}},{"base_weights":[-3.7014375E-3,-4.6949252E-2,4.1402784E-1,4.8066683E-2,-1.2520458E-2],"categories":[],"categories_nodes":[],"categories_segments":[],"categories_sizes":[],"default_left":[0,0,0,0,0],"id":86,"left_children":[1,-1,3,-1,-1],"loss_changes":[4.3885074E0,0E0,4.8762774E-1,0E0,0E0],"parents":[2147483647,0,0,2,2],"right_children":[2,-1,4,-1,-1],"split_conditions":[2.08E2,-4.6949252E-2,1.71E1,4.8066683E-2,-1.2520458E-2],"split_indices":[2,0,1,0,0],"split_type":[0,0,0,0,0],"sum_hessian":[2.0555357E1,9.660005E0,1.0895351E1,9.793651E0,1.1017015E0],"tree_param":{"num_deleted":"0","num_feature":"10","num_nodes":"5","size_leaf_vector":"1"}},{"base_weights":[9.555836E-2,3.516434E-1,-3.7860304E-1,-7.8508854E-2,4.3898466E-1,-4.3932687E-2,-1.2635754E-1,2.9321114E-2,-3.6903564E-2,4.82897E-2,1.6991355E-2,-2.7759982E-2,8.942558E-3],"categories":[],"categories_nodes":[],"categories_segments":[],"categories_sizes":[],"default_left":[0,0,0,0,0,0,0,0,0,0,0,0,0],"id":87,"left_children":[1,3,5,7,9,-1,11,-1,-1,-1,-1,-1,-1],"loss_changes":[3.090264E0,6.4804125E-1,8.2678676E-2,4.9749234E-1,8.013964E-2,0E0,1.2776367E-1,0E0,0E0,0E0,0E0,0E0,0E0],"parents":[2147483647,0,0,1,1,2,2,3,3,4,4,6,6],"right_children":[2,4,6,8,10,-1,12,-1,-1,-1,-1,-1,-1],"split_conditions":[4.44E1,1.68E1,1.89E1,3.96E1,4.24E1,-4.3932687E-2,4.15E3,2.9321114E-2,-3.6903564E-2,4.82897E-2,1.6991355E-2,-2.7759982E-2,8.942558E-3],"split_indices":[0,1,1,0,0,0,3,0,0,0,0,0,0],"split_type":[0,0,0,0,0,0,0,0,0,0,0,0,0],"sum_hessian":[2.335343E1,1.5331553E1,8.021875E0,2.6046891E0,1.2726865E1,5.86767E0,2.1542048E0,1.1386204E0,1.4660689E0,1.0258069E1,2.4687958E0,1.0980831E0,1.0561218E0],"tree_param":{"num_deleted":"0","num_feature":"10","num_nodes":"13","size_leaf_vector":"1"}},{"base_weights":[-1.0591162E-1,-4.6219252E-2,1.8152133E-1,-3.582112E-2,3.3708102E-1,7.2038034E-3,4.5760065E-2],"categories":[],"categories_nodes":[],"categories_segments":[],"categories_sizes":[],"default_left":[0,0,0,0,0,0,0],"id":88,"left_children":[1,-1,3,-1,5,-1,-1],"loss_changes":[2.230187E0,0E0,1.1549759E0,0E0,2.8893256E-1,0E0,0E0],"parents":[2147483647,0,0,2,2,4,4],"right_children":[2,-1,4,-1,6,-1,-1],"split_conditions":[1E0,-4.6219252E-2,4.09E1,-3.582112E-2,4.44E1,7.2038034E-3,4.5760065E-2],"split_indices":[8,0,0,0,0,0,0],"split_type":[0,0,0,0,0,0,0],"sum_hessian":[1.995845E1,8.640418E0,1.1318032E1,2.2407527E0,9.07728E0,3.3368075E0,5.7404723E0],"tree_param":{"num_deleted":"0","num_feature":"10","num_nodes":"7","size_leaf_vector":"1"}},{"base_weights":[-5.3654984E-3,-4.6471942E-2,4.055456E-1,4.7458332E-2,-1.2346239E-2],"categories":[],"categories_nodes":[],"categories_segments":[],"categories_sizes":[],"default_left":[0,0,0,0,0],"id":89,"left_children":[1,-1,3,-1,-1],"loss_changes":[3.9676433E0,0E0,4.6405947E-1,0E0,0E0],"parents":[2147483647,0,0,2,2],"right_children":[2,-1,4,-1,-1],"split_conditions":[2.08E2,-4.6471942E-2,1.71E1,4.7458332E-2,-1.2346239E-2],"split_indices":[2,0,1,0,0],"split_type":[0,0,0,0,0],"sum_hessian":[1.9021753E1,8.919629E0,1.0102125E1,9.026952E0,1.0751733E0],"tree_param":{"num_deleted":"0","num_feature":"10","num_nodes":"5","size_leaf_vector":"1"}},{"base_weights":[9.346268E-2,3.43148E-1,-3.716803E-1,-8.0495946E-2,4.3030465E-1,-1.1970666E-1,-4.3383475E-2,2.829435E-2,-3.6106847E-2,4.7728054E-2,1.6170861E-2,8.703312E-3,-2.6319394E-2],"categories":[],"categories_nodes":[],"categories_segments":[],"categories_sizes":[],"default_left":[0,0,0,0,0,0,0,0,0,0,0,0,0],"id":90,"left_children":[1,3,5,7,9,11,-1,-1,-1,-1,-1,-1,-1],"loss_changes":[2.7799494E0,6.025517E-1,8.051884E-2,4.5567667E-1,8.5763454E-2,1.13515735E-1,0E0,0E0,0E0,0E0,0E0,0E0,0E0],"parents":[2147483647,0,0,1,1,2,2,3,3,4,4,5,5],"right_children":[2,4,6,8,10,12,-1,-1,-1,-1,-1,-1,-1],"split_conditions":[4.44E1,1.68E1,4.6E1,3.96E1,4.24E1,1.98E2,-4.3383475E-2,2.829435E-2,-3.6106847E-2,4.7728054E-2,1.6170861E-2,8.703312E-3,-2.6319394E-2],"split_indices":[0,1,0,0,0,2,0,0,0,0,0,0,0],"split_type":[0,0,0,0,0,0,0,0,0,0,0,0,0],"sum_hessian":[2.1838148E1,1.4380875E1,7.4572735E0,2.4668126E0,1.1914062E1,2.0544612E0,5.4028125E0,1.0710186E0,1.3957939E0,9.47925E0,2.4348114E0,1.0029014E0,1.0515597E0],"tree_param":{"num_deleted":"0","num_feature":"10","num_nodes":"13","size_leaf_vector":"1"}},{"base_weights":[-1.0185079E-1,-4.571889E-2,1.7864554E-1,-3.4887362E-2,3.2855934E-1,4.250812E-2,1.6719878E-3],"categories":[],"categories_nodes":[],"categories_segments":[],"categories_sizes":[],"default_left":[0,0,0,0,0,0,0],"id":91,"left_children":[1,-1,3,-1,5,-1,-1],"loss_changes":[2.043398E0,0E0,1.0413426E0,0E0,2.830541E-1,0E0,0E0],"parents":[2147483647,0,0,2,2,4,4],"right_children":[2,-1,4,-1,6,-1,-1],"split_conditions":[1E0,-4.571889E-2,4.09E1,-3.4887362E-2,4.075E3,4.250812E-2,1.6719878E-3],"split_indices":[8,0,0,0,3,0,0],"split_type":[0,0,0,0,0,0,0],"sum_hessian":[1.8681978E1,7.963604E0,1.0718373E1,2.0782456E0,8.640128E0,6.320606E0,2.3195217E0],"tree_param":{"num_deleted":"0","num_feature":"10","num_nodes":"7","size_leaf_vector":"1"}},{"base_weights":[-6.9899396E-3,-4.5988124E-2,3.9805892E-1,4.6841204E-2,-1.1927567E-2],"categories":[],"categories_nodes":[],"categories_segments":[],"categories_sizes":[],"default_left":[0,0,0,0,0],"id":92,"left_children":[1,-1,3,-1,-1],"loss_changes":[3.591786E0,0E0,4.323914E-1,0E0,0E0],"parents":[2147483647,0,0,2,2],"right_children":[2,-1,4,-1,-1],"split_conditions":[2.08E2,-4.5988124E-2,1.71E1,4.6841204E-2,-1.1927567E-2],"split_indices":[2,0,1,0,0],"split_type":[0,0,0,0,0],"sum_hessian":[1.7581928E1,8.236831E0,9.345098E0,8.309626E0,1.0354719E0],"tree_param":{"num_deleted":"0","num_feature":"10","num_nodes":"5","size_leaf_vector":"1"}},{"base_weights":[9.191039E-2,3.3701497E-1,-3.6545324E-1,-7.96036E-2,4.2339388E-1,-1.1564066E-2,-4.277148E-2,2.7299587E-2,-3.5017606E-2,4.7189023E-2,1.5812876E-2],"categories":[],"categories_nodes":[],"categories_segments":[],"categories_sizes":[],"default_left":[0,0,0,0,0,0,0,0,0,0,0],"id":93,"left_children":[1,3,5,7,9,-1,-1,-1,-1,-1,-1],"loss_changes":[2.5286927E0,5.5520666E-1,7.445538E-2,4.133221E-1,8.1825495E-2,0E0,0E0,0E0,0E0,0E0,0E0],"parents":[2147483647,0,0,1,1,2,2,3,3,4,4],"right_children":[2,4,6,8,10,-1,-1,-1,-1,-1,-1],"split_conditions":[4.44E1,1.68E1,4.6E1,3.96E1,4.24E1,-1.1564066E-2,-4.277148E-2,2.7299587E-2,-3.5017606E-2,4.7189023E-2,1.5812876E-2],"split_indices":[0,1,0,0,0,0,0,0,0,0,0],"split_type":[0,0,0,0,0,0,0,0,0,0,0],"sum_hessian":[2.0458414E1,1.34914055E1,6.967009E0,2.3303266E0,1.1161079E1,1.9600433E0,5.0069656E0,1.0079061E0,1.3224206E0,8.7774315E0,2.3836477E0],"tree_param":{"num_deleted":"0","num_feature":"10","num_nodes":"11","size_leaf_vector":"1"}},{"base_weights":[-9.833569E-2,-4.520628E-2,1.742706E-1,-1.178389E-1,4.4438243E-2,-4.0538E-2,1.6400097E-2],"categories":[],"categories_nodes":[],"categories_segments":[],"categories_sizes":[],"default_left":[0,0,0,0,0,0,0],"id":94,"left_children":[1,-1,3,5,-1,-1,-1],"loss_changes":[1.8658345E0,0E0,9.351341E-1,5.661459E-1,0E0,0E0,0E0],"parents":[2147483647,0,0,2,2,3,3],"right_children":[2,-1,4,6,-1,-1,-1],"split_conditions":[1E0,-4.520628E-2,4.44E1,1E0,4.4438243E-2,-4.0538E-2,1.6400097E-2],"split_indices":[8,0,0,5,0,0,0],"split_type":[0,0,0,0,0,0,0],"sum_hessian":[1.7532469E1,7.3443394E0,1.018813E1,5.1655946E0,5.0225353E0,2.339963E0,2.8256316E0],"tree_param":{"num_deleted":"0","num_feature":"10","num_nodes":"7","size_leaf_vector":"1"}},{"base_weights":[-8.665786E-3,-4.5491762E-2,3.895395E-1,4.623596E-2,-1.1777085E-2],"categories":[],"categories_nodes":[],"categories_segments":[],"categories_sizes":[],"default_left":[0,0,0,0,0],"id":95,"left_children":[1,-1,3,-1,-1],"loss_changes":[3.2498786E0,0E0,4.1191792E-1,0E0,0E0],"parents":[2147483647,0,0,2,2],"right_children":[2,-1,4,-1,-1],"split_conditions":[2.08E2,-4.5491762E-2,1.71E1,4.623596E-2,-1.1777085E-2],"split_indices":[2,0,1,0,0],"split_type":[0,0,0,0,0],"sum_hessian":[1.6291351E1,7.615058E0,8.676293E0,7.6646967E0,1.0115964E0],"tree_param":{"num_deleted":"0","num_feature":"10","num_nodes":"5","size_leaf_vector":"1"}},{"base_weights":[8.972896E-2,3.2845545E-1,-3.575432E-1,-7.9578966E-2,4.1418934E-1,-4.208523E-2,-1.0607566E-2,-2.5232027E-3,-9.335674E-3,4.662873E-2,1.4724106E-2],"categories":[],"categories_nodes":[],"categories_segments":[],"categories_sizes":[],"default_left":[0,0,0,0,0,0,0,0,0,0,0],"id":96,"left_children":[1,3,5,7,9,-1,-1,-1,-1,-1,-1],"loss_changes":[2.2719731E0,5.114281E-1,7.4771345E-2,5.074404E-5,9.0774655E-2,0E0,0E0,0E0,0E0,0E0,0E0],"parents":[2147483647,0,0,1,1,2,2,3,3,4,4],"right_children":[2,4,6,8,10,-1,-1,-1,-1,-1,-1],"split_conditions":[4.44E1,1.68E1,1.89E1,3.275E3,4.24E1,-4.208523E-2,-1.0607566E-2,-2.5232027E-3,-9.335674E-3,4.662873E-2,1.4724106E-2],"split_indices":[0,1,1,3,0,0,0,0,0,0,0],"split_type":[0,0,0,0,0,0,0,0,0,0,0],"sum_hessian":[1.9178148E1,1.2677384E1,6.500764E0,2.2136629E0,1.0463722E1,4.655194E0,1.8455702E0,1.0203218E0,1.1933409E0,8.130275E0,2.3334467E0],"tree_param":{"num_deleted":"0","num_feature":"10","num_nodes":"11","size_leaf_vector":"1"}},{"base_weights":[-9.507448E-2,-4.469047E-2,1.7109114E-1,-3.334593E-2,3.1421357E-1,4.123867E-2,6.649863E-4],"categories":[],"categories_nodes":[],"categories_segments":[],"categories_sizes":[],"default_left":[0,0,0,0,0,0,0],"id":97,"left_children":[1,-1,3,-1,5,-1,-1],"loss_changes":[1.7084239E0,0E0,8.7344646E-1,0E0,2.6318586E-1,0E0,0E0],"parents":[2147483647,0,0,2,2,4,4],"right_children":[2,-1,4,-1,6,-1,-1],"split_conditions":[1E0,-4.469047E-2,4.09E1,-3.334593E-2,4.075E3,4.123867E-2,6.649863E-4],"split_indices":[8,0,0,0,3,0,0],"split_type":[0,0,0,0,0,0,0],"sum_hessian":[1.6427097E1,6.782553E0,9.644545E0,1.8373686E0,7.8071756E0,5.6597795E0,2.147396E0],"tree_param":{"num_deleted":"0","num_feature":"10","num_nodes":"7","size_leaf_vector":"1"}},{"base_weights":[-9.543076E-3,-4.4991486E-2,3.824322E-1,4.54604E-2,-4.9539725E-3],"categories":[],"categories_nodes":[],"categories_segments":[],"categories_sizes":[],"default_left":[0,0,0,0,0],"id":98,"left_children":[1,-1,3,-1,-1],"loss_changes":[2.9520204E0,0E0,3.0501592E-1,0E0,0E0],"parents":[2147483647,0,0,2,2],"right_children":[2,-1,4,-1,-1],"split_conditions":[2.08E2,-4.4991486E-2,1.69E1,4.54604E-2,-4.9539725E-3],"split_indices":[2,0,1,0,0],"split_type":[0,0,0,0,0],"sum_hessian":[1.51049795E1,7.043743E0,8.061236E0,6.86232E0,1.198916E0],"tree_param":{"num_deleted":"0","num_feature":"10","num_nodes":"5","size_leaf_vector":"1"}},{"base_weights":[8.785489E-2,3.212205E-1,-3.504836E-1,-7.80181E-2,4.0738398E-1,-1.0053917E-2,-4.1530296E-2,-2.5795891E-3,-9.426429E-3,4.6089534E-2,1.444134E-2],"categories":[],"categories_nodes":[],"categories_segments":[],"categories_sizes":[],"default_left":[0,0,0,0,0,0,0,0,0,0,0],"id":99,"left_children":[1,3,5,7,9,-1,-1,-1,-1,-1,-1],"loss_changes":[2.0630875E0,4.777763E-1,7.332015E-2,2.3295544E-4,8.575928E-2,0E0,0E0,0E0,0E0,0E0,0E0],"parents":[2147483647,0,0,1,1,2,2,3,3,4,4],"right_children":[2,4,6,8,10,-1,-1,-1,-1,-1,-1],"split_conditions":[4.44E1,1.68E1,4.6E1,1.63E1,4.24E1,-1.0053917E-2,-4.1530296E-2,-2.5795891E-3,-9.426429E-3,4.6089534E-2,1.444134E-2],"split_indices":[0,1,0,1,0,0,0,0,0,0,0],"split_type":[0,0,0,0,0,0,0,0,0,0,0],"sum_hessian":[1.80678E1,1.1964987E1,6.102814E0,2.1406798E0,9.8243065E0,1.7820954E0,4.320719E0,1.1219769E0,1.018703E0,7.5378046E0,2.2865024E0],"tree_param":{"num_deleted":"0","num_feature":"10","num_nodes":"11","size_leaf_vector":"1"}},{"base_weights":[-9.104026E-2,-4.4181105E-2,1.6812968E-1,-3.2445177E-2,3.0548942E-1,4.0395778E-2,5.183289E-4],"categories":[],"categories_nodes":[],"categories_segments":[],"categories_sizes":[],"default_left":[0,0,0,0,0,0,0],"id":100,"left_children":[1,-1,3,-1,5,-1,-1],"loss_changes":[1.5739765E0,0E0,7.900279E-1,0E0,2.4925166E-1,0E0,0E0],"parents":[2147483647,0,0,2,2,4,4],"right_children":[2,-1,4,-1,6,-1,-1],"split_conditions":[1E0,-4.4181105E-2,4.09E1,-3.2445177E-2,4.075E3,4.0395778E-2,5.183289E-4],"split_indices":[8,0,0,0,3,0,0],"split_type":[0,0,0,0,0,0,0],"sum_hessian":[1.5496618E1,6.2852283E0,9.2113905E0,1.7115599E0,7.4998307E0,5.3879914E0,2.111839E0],"tree_param":{"num_deleted":"0","num_feature":"10","num_nodes":"7","size_leaf_vector":"1"}},{"base_weights":[-1.1519532E-2,-4.4494223E-2,3.736553E-1,4.484355E-2,-5.1417956E-3],"categories":[],"categories_nodes":[],"categories_segments":[],"categories_sizes":[],"default_left":[0,0,0,0,0],"id":101,"left_children":[1,-1,3,-1,-1],"loss_changes":[2.6783564E0,0E0,2.9359102E-1,0E0,0E0],"parents":[2147483647,0,0,2,2],"right_children":[2,-1,4,-1,-1],"split_conditions":[2.08E2,-4.4494223E-2,1.69E1,4.484355E-2,-5.1417956E-3],"split_indices":[2,0,1,0,0],"split_type":[0,0,0,0,0],"sum_hessian":[1.4047613E1,6.5368137E0,7.510799E0,6.340413E0,1.1703857E0],"tree_param":{"num_deleted":"0","num_feature":"10","num_nodes":"5","size_leaf_vector":"1"}},{"base_weights":[8.6011514E-2,3.1405428E-1,-3.4345832E-1,-7.645938E-3,4.0064314E-1,-9.592604E-3,-4.0896606E-2,4.5549147E-2,1.4175268E-2],"categories":[],"categories_nodes":[],"categories_segments":[],"categories_sizes":[],"default_left":[0,0,0,0,0,0,0,0,0],"id":102,"left_children":[1,3,5,-1,7,-1,-1,-1,-1],"loss_changes":[1.8752552E0,4.4687128E-1,7.000387E-2,0E0,8.077824E-2,0E0,0E0,0E0,0E0],"parents":[2147483647,0,0,1,1,2,2,4,4],"right_children":[2,4,6,-1,8,-1,-1,-1,-1],"split_conditions":[4.44E1,1.68E1,4.6E1,-7.645938E-3,4.24E1,-9.592604E-3,-4.0896606E-2,4.5549147E-2,1.4175268E-2],"split_indices":[0,1,0,0,0,0,0,0,0],"split_type":[0,0,0,0,0,0,0,0,0],"sum_hessian":[1.704611E1,1.1309601E1,5.736508E0,2.0737994E0,9.235802E0,1.7161362E0,4.020372E0,6.994545E0,2.2412567E0],"tree_param":{"num_deleted":"0","num_feature":"10","num_nodes":"9","size_leaf_vector":"1"}},{"base_weights":[-8.8058524E-2,-4.3658566E-2,1.6411282E-1,-1.0384396E-1,4.25346E-2,-3.890033E-2,1.71089E-2],"categories":[],"categories_nodes":[],"categories_segments":[],"categories_sizes":[],"default_left":[0,0,0,0,0,0,0],"id":103,"left_children":[1,-1,3,5,-1,-1,-1],"loss_changes":[1.4442012E0,0E0,7.293081E-1,5.0837505E-1,0E0,0E0,0E0],"parents":[2147483647,0,0,2,2,3,3],"right_children":[2,-1,4,6,-1,-1,-1],"split_conditions":[1E0,-4.3658566E-2,4.44E1,1E0,4.25346E-2,-3.890033E-2,1.71089E-2],"split_indices":[8,0,0,5,0,0,0],"split_type":[0,0,0,0,0,0,0],"sum_hessian":[1.4616958E1,5.829153E0,8.787805E0,4.635491E0,4.152313E0,2.0717638E0,2.5637274E0],"tree_param":{"num_deleted":"0","num_feature":"10","num_nodes":"7","size_leaf_vector":"1"}},{"base_weights":[-1.2548212E-2,-4.3986984E-2,3.6533847E-1,4.4252846E-2,-5.2696876E-3],"categories":[],"categories_nodes":[],"categories_segments":[],"categories_sizes":[],"default_left":[0,0,0,0,0],"id":104,"left_children":[1,-1,3,-1,-1],"loss_changes":[2.4381075E0,0E0,2.8246272E-1,0E0,0E0],"parents":[2147483647,0,0,2,2],"right_children":[2,-1,4,-1,-1],"split_conditions":[2.08E2,-4.3986984E-2,1.69E1,4.4252846E-2,-5.2696876E-3],"split_indices":[2,0,1,0,0],"split_type":[0,0,0,0,0],"sum_hessian":[1.3103407E1,6.0724907E0,7.030916E0,5.88556E0,1.1453559E0],"tree_param":{"num_deleted":"0","num_feature":"10","num_nodes":"5","size_leaf_vector":"1"}},{"base_weights":[8.3476104E-2,3.0459458E-1,-3.357194E-1,-7.5076185E-3,3.9147255E-1,-4.0202685E-2,-8.738196E-3,4.4978455E-2,1.32273305E-2],"categories":[],"categories_nodes":[],"categories_segments":[],"categories_sizes":[],"default_left":[0,0,0,0,0,0,0,0,0],"id":105,"left_children":[1,3,5,-1,7,-1,-1,-1,-1],"loss_changes":[1.6853673E0,4.155004E-1,6.982255E-2,0E0,8.691573E-2,0E0,0E0,0E0,0E0],"parents":[2147483647,0,0,1,1,2,2,4,4],"right_children":[2,4,6,-1,8,-1,-1,-1,-1],"split_conditions":[4.44E1,1.68E1,1.89E1,-7.5076185E-3,4.24E1,-4.0202685E-2,-8.738196E-3,4.4978455E-2,1.32273305E-2],"split_indices":[0,1,1,0,0,0,0,0,0],"split_type":[0,0,0,0,0,0,0,0,0],"sum_hessian":[1.6079268E1,1.0705619E1,5.373648E0,2.0188336E0,8.686786E0,3.7527664E0,1.6208818E0,6.491181E0,2.195604E0],"tree_param":{"num_deleted":"0","num_feature":"10","num_nodes":"9","size_leaf_vector":"1"}},{"base_weights":[-8.4899545E-2,-4.3125104E-2,1.6169518E-1,-3.1006789E-2,2.9351074E-1,3.9346386E-2,-2.9589247E-4],"categories":[],"categories_nodes":[],"categories_segments":[],"categories_sizes":[],"default_left":[0,0,0,0,0,0,0],"id":106,"left_children":[1,-1,3,-1,5,-1,-1],"loss_changes":[1.330658E0,0E0,6.725035E-1,0E0,2.3296922E-1,0E0,0E0],"parents":[2147483647,0,0,2,2,4,4],"right_children":[2,-1,4,-1,6,-1,-1],"split_conditions":[1E0,-4.3125104E-2,4.09E1,-3.1006789E-2,4.075E3,3.9346386E-2,-2.9589247E-4],"split_indices":[8,0,0,0,3,0,0],"split_type":[0,0,0,0,0,0,0],"sum_hessian":[1.3763491E1,5.412545E0,8.350946E0,1.5284375E0,6.822509E0,4.8576236E0,1.9648851E0],"tree_param":{"num_deleted":"0","num_feature":"10","num_nodes":"7","size_leaf_vector":"1"}},{"base_weights":[-1.3036709E-2,-4.346423E-2,3.5830817E-1,4.3652132E-2,-5.115709E-3],"categories":[],"categories_nodes":[],"categories_segments":[],"categories_sizes":[],"default_left":[0,0,0,0,0],"id":107,"left_children":[1,-1,3,-1,-1],"loss_changes":[2.224902E0,0E0,2.6493025E-1,0E0,0E0],"parents":[2147483647,0,0,2,2],"right_children":[2,-1,4,-1,-1],"split_conditions":[2.08E2,-4.346423E-2,1.69E1,4.3652132E-2,-5.115709E-3],"split_indices":[2,0,1,0,0],"split_type":[0,0,0,0,0],"sum_hessian":[1.22163515E1,5.641187E0,6.5751643E0,5.4651694E0,1.1099949E0],"tree_param":{"num_deleted":"0","num_feature":"10","num_nodes":"5","size_leaf_vector":"1"}},{"base_weights":[8.183071E-2,2.9790512E-1,-3.2882652E-1,-7.2922106E-3,3.8480192E-1,-8.303129E-3,-3.960687E-2,4.442739E-2,1.3012426E-2],"categories":[],"categories_nodes":[],"categories_segments":[],"categories_sizes":[],"default_left":[0,0,0,0,0,0,0,0,0],"id":108,"left_children":[1,3,5,-1,7,-1,-1,-1,-1],"loss_changes":[1.5357928E0,3.871038E-1,6.730431E-2,0E0,8.132529E-2,0E0,0E0,0E0,0E0],"parents":[2147483647,0,0,1,1,2,2,4,4],"right_children":[2,4,6,-1,8,-1,-1,-1,-1],"split_conditions":[4.44E1,1.68E1,4.6E1,-7.2922106E-3,4.24E1,-8.303129E-3,-3.960687E-2,4.442739E-2,1.3012426E-2],"split_indices":[0,1,0,0,0,0,0,0,0],"split_type":[0,0,0,0,0,0,0,0,0],"sum_hessian":[1.5204136E1,1.0142205E1,5.061931E0,1.9559823E0,8.186222E0,1.5673803E0,3.4945507E0,6.0329595E0,2.153263E0],"tree_param":{"num_deleted":"0","num_feature":"10","num_nodes":"9","size_leaf_vector":"1"}},{"base_weights":[-8.117048E-2,-4.2579923E-2,1.58742E-1,-9.306942E-2,4.125408E-2,-3.765848E-2,1.7360998E-2],"categories":[],"categories_nodes":[],"categories_segments":[],"categories_sizes":[],"default_left":[0,0,0,0,0,0,0],"id":109,"left_children":[1,-1,3,5,-1,-1,-1],"loss_changes":[1.2279134E0,0E0,6.1372894E-1,4.687298E-1,0E0,0E0,0E0],"parents":[2147483647,0,0,2,2,3,3],"right_children":[2,-1,4,6,-1,-1,-1],"split_conditions":[1E0,-4.2579923E-2,4.44E1,1E0,4.125408E-2,-3.765848E-2,1.7360998E-2],"split_indices":[8,0,0,5,0,0,0],"split_type":[0,0,0,0,0,0,0],"sum_hessian":[1.3033755E1,5.031422E0,8.002333E0,4.334786E0,3.6675472E0,1.9013133E0,2.4334724E0],"tree_param":{"num_deleted":"0","num_feature":"10","num_nodes":"7","size_leaf_vector":"1"}},{"base_weights":[-1.507397E-2,-4.2934444E-2,3.4940922E-1,4.3014135E-2,-5.2870004E-3],"categories":[],"categories_nodes":[],"categories_segments":[],"categories_sizes":[],"default_left":[0,0,0,0,0],"id":110,"left_children":[1,-1,3,-1,-1],"loss_changes":[2.0218463E0,0E0,2.5481874E-1,0E0,0E0],"parents":[2147483647,0,0,2,2],"right_children":[2,-1,4,-1,-1],"split_conditions":[2.08E2,-4.2934444E-2,1.69E1,4.3014135E-2,-5.2870004E-3],"split_indices":[2,0,1,0,0],"split_type":[0,0,0,0,0],"sum_hessian":[1.1396664E1,5.2507377E0,6.1459255E0,5.0609913E0,1.0849342E0],"tree_param":{"num_deleted":"0","num_feature":"10","num_nodes":"5","size_leaf_vector":"1"}},{"base_weights":[7.931828E-2,2.8871197E-1,-3.2118988E-1,-7.152395E-3,3.7565938E-1,-3.8869552E-2,-7.7254362E-3,4.3844473E-2,1.214737E-2],"categories":[],"categories_nodes":[],"categories_segments":[],"categories_sizes":[],"default_left":[0,0,0,0,0,0,0,0,0],"id":111,"left_children":[1,3,5,-1,7,-1,-1,-1,-1],"loss_changes":[1.3822094E0,3.5961586E-1,6.4694166E-2,0E0,8.587134E-2,0E0,0E0,0E0,0E0],"parents":[2147483647,0,0,1,1,2,2,4,4],"right_children":[2,4,6,-1,8,-1,-1,-1,-1],"split_conditions":[4.44E1,1.68E1,1.89E1,-7.152395E-3,4.24E1,-3.8869552E-2,-7.7254362E-3,4.3844473E-2,1.214737E-2],"split_indices":[0,1,1,0,0,0,0,0,0],"split_type":[0,0,0,0,0,0,0,0,0],"sum_hessian":[1.4375842E1,9.623578E0,4.7522635E0,1.9056361E0,7.717942E0,3.2573924E0,1.4948713E0,5.6078672E0,2.110075E0],"tree_param":{"num_deleted":"0","num_feature":"10","num_nodes":"9","size_leaf_vector":"1"}},{"base_weights":[-7.809311E-2,-4.2022374E-2,1.5647613E-1,-2.9611725E-2,2.8292403E-1,3.8367648E-2,-8.3574903E-4],"categories":[],"categories_nodes":[],"categories_segments":[],"categories_sizes":[],"default_left":[0,0,0,0,0,0,0],"id":112,"left_children":[1,-1,3,-1,5,-1,-1],"loss_changes":[1.1333191E0,0E0,5.7712054E-1,0E0,2.1595496E-1,0E0,0E0],"parents":[2147483647,0,0,2,2,4,4],"right_children":[2,-1,4,-1,6,-1,-1],"split_conditions":[1E0,-4.2022374E-2,4.09E1,-2.9611725E-2,4.075E3,3.8367648E-2,-8.3574903E-4],"split_indices":[8,0,0,0,3,0,0],"split_type":[0,0,0,0,0,0,0],"sum_hessian":[1.2302431E1,4.682015E0,7.620416E0,1.3710874E0,6.2493286E0,4.4075747E0,1.8417542E0],"tree_param":{"num_deleted":"0","num_feature":"10","num_nodes":"7","size_leaf_vector":"1"}},{"base_weights":[-1.551951E-2,-4.238726E-2,3.424036E-1,4.239835E-2,-5.131654E-3],"categories":[],"categories_nodes":[],"categories_segments":[],"categories_sizes":[],"default_left":[0,0,0,0,0],"id":113,"left_children":[1,-1,3,-1,-1],"loss_changes":[1.8474847E0,0E0,2.3888761E-1,0E0,0E0],"parents":[2147483647,0,0,2,2],"right_children":[2,-1,4,-1,-1],"split_conditions":[2.08E2,-4.238726E-2,1.69E1,4.239835E-2,-5.131654E-3],"split_indices":[2,0,1,0,0],"split_type":[0,0,0,0,0],"sum_hessian":[1.06472435E1,4.8872004E0,5.760043E0,4.7077246E0,1.0523187E0],"tree_param":{"num_deleted":"0","num_feature":"10","num_nodes":"5","size_leaf_vector":"1"}},{"base_weights":[7.776082E-2,2.823365E-1,-3.1444395E-1,-6.943865E-3,3.6908793E-1,-7.162274E-3,-3.8285356E-2,4.3279544E-2,1.19792875E-2],"categories":[],"categories_nodes":[],"categories_segments":[],"categories_sizes":[],"default_left":[0,0,0,0,0,0,0,0,0],"id":114,"left_children":[1,3,5,-1,7,-1,-1,-1,-1],"loss_changes":[1.2623466E0,3.350553E-1,6.372619E-2,0E0,7.98471E-2,0E0,0E0,0E0,0E0],"parents":[2147483647,0,0,1,1,2,2,4,4],"right_children":[2,4,6,-1,8,-1,-1,-1,-1],"split_conditions":[4.44E1,1.68E1,4.6E1,-6.943865E-3,4.24E1,-7.162274E-3,-3.8285356E-2,4.3279544E-2,1.19792875E-2],"split_indices":[0,1,0,0,0,0,0,0,0],"split_type":[0,0,0,0,0,0,0,0,0],"sum_hessian":[1.3626531E1,9.139473E0,4.487058E0,1.8474941E0,7.2919784E0,1.4362018E0,3.050856E0,5.2215357E0,2.070443E0],"tree_param":{"num_deleted":"0","num_feature":"10","num_nodes":"9","size_leaf_vector":"1"}},{"base_weights":[-7.454468E-2,-4.145399E-2,1.5362556E-1,-2.8763456E-2,2.7514693E-1,3.7577912E-2,-9.0358034E-4],"categories":[],"categories_nodes":[],"categories_segments":[],"categories_sizes":[],"default_left":[0,0,0,0,0,0,0],"id":115,"left_children":[1,-1,3,-1,5,-1,-1],"loss_changes":[1.0472853E0,0E0,5.2511376E-1,0E0,2.044993E-1,0E0,0E0],"parents":[2147483647,0,0,2,2,4,4],"right_children":[2,-1,4,-1,6,-1,-1],"split_conditions":[1E0,-4.145399E-2,4.09E1,-2.8763456E-2,4.075E3,3.7577912E-2,-9.0358034E-4],"split_indices":[8,0,0,0,3,0,0],"split_type":[0,0,0,0,0,0,0],"sum_hessian":[1.1679069E1,4.362191E0,7.316878E0,1.2847681E0,6.0321093E0,4.216637E0,1.8154722E0],"tree_param":{"num_deleted":"0","num_feature":"10","num_nodes":"7","size_leaf_vector":"1"}},{"base_weights":[-1.7546715E-2,-4.183447E-2,3.334513E-1,4.1742142E-2,-5.293576E-3],"categories":[],"categories_nodes":[],"categories_segments":[],"categories_sizes":[],"default_left":[0,0,0,0,0],"id":116,"left_children":[1,-1,3,-1,-1],"loss_changes":[1.6806036E0,0E0,2.2963601E-1,0E0,0E0],"parents":[2147483647,0,0,2,2],"right_children":[2,-1,4,-1,-1],"split_conditions":[2.08E2,-4.183447E-2,1.69E1,4.1742142E-2,-5.293576E-3],"split_indices":[2,0,1,0,0],"split_type":[0,0,0,0,0],"sum_hessian":[9.954747E0,4.5580845E0,5.3966627E0,4.3672476E0,1.0294149E0],"tree_param":{"num_deleted":"0","num_feature":"10","num_nodes":"5","size_leaf_vector":"1"}},{"base_weights":[7.62696E-2,2.7613932E-1,-3.0779344E-1,7.534832E-3,4.0051603E-1,-6.8572485E-3,-3.7612285E-2,3.2359425E-2,-3.322188E-2,9.360249E-3,4.4481244E-2],"categories":[],"categories_nodes":[],"categories_segments":[],"categories_sizes":[],"default_left":[0,0,0,0,0,0,0,0,0,0,0],"id":117,"left_children":[1,3,5,7,9,-1,-1,-1,-1,-1,-1],"loss_changes":[1.1545646E0,3.207543E-1,5.989456E-2,5.4631793E-1,4.8159838E-2,0E0,0E0,0E0,0E0,0E0,0E0],"parents":[2147483647,0,0,1,1,2,2,3,3,4,4],"right_children":[2,4,6,8,10,-1,-1,-1,-1,-1,-1],"split_conditions":[4.44E1,1.75E1,4.6E1,4.08E1,3.45E3,-6.8572485E-3,-3.7612285E-2,3.2359425E-2,-3.322188E-2,9.360249E-3,4.4481244E-2],"split_indices":[0,1,0,0,3,0,0,0,0,0,0],"split_type":[0,0,0,0,0,0,0,0,0,0,0],"sum_hessian":[1.2933495E1,8.691414E0,4.242081E0,3.086461E0,5.604953E0,1.3876132E0,2.854468E0,1.6236271E0,1.462834E0,1.0995646E0,4.5053883E0],"tree_param":{"num_deleted":"0","num_feature":"10","num_nodes":"11","size_leaf_vector":"1"}},{"base_weights":[-7.194059E-2,-4.08743E-2,1.4995866E-1,-8.178819E-2,3.9392266E-2,-3.613314E-2,1.7766213E-2],"categories":[],"categories_nodes":[],"categories_segments":[],"categories_sizes":[],"default_left":[0,0,0,0,0,0,0],"id":118,"left_children":[1,-1,3,5,-1,-1,-1],"loss_changes":[9.64586E-1,0E0,4.8551893E-1,4.2247015E-1,0E0,0E0,0E0],"parents":[2147483647,0,0,2,2,3,3],"right_children":[2,-1,4,6,-1,-1,-1],"split_conditions":[1E0,-4.08743E-2,4.44E1,1E0,3.9392266E-2,-3.613314E-2,1.7766213E-2],"split_indices":[8,0,0,5,0,0,0],"split_type":[0,0,0,0,0,0,0],"sum_hessian":[1.10864E1,4.0687547E0,7.017645E0,3.9398482E0,3.0777967E0,1.7074672E0,2.232381E0],"tree_param":{"num_deleted":"0","num_feature":"10","num_nodes":"7","size_leaf_vector":"1"}},{"base_weights":[-1.8692112E-2,-4.127178E-2,3.250109E-1,4.1110393E-2,-5.394041E-3],"categories":[],"categories_nodes":[],"categories_segments":[],"categories_sizes":[],"default_left":[0,0,0,0,0],"id":119,"left_children":[1,-1,3,-1,-1],"loss_changes":[1.5339165E0,0E0,2.2053403E-1,0E0,0E0],"parents":[2147483647,0,0,2,2],"right_children":[2,-1,4,-1,-1],"split_conditions":[2.08E2,-4.127178E-2,1.69E1,4.1110393E-2,-5.394041E-3],"split_indices":[2,0,1,0,0],"split_type":[0,0,0,0,0],"sum_hessian":[9.335977E0,4.2560205E0,5.079956E0,4.070372E0,1.0095842E0],"tree_param":{"num_deleted":"0","num_feature":"10","num_nodes":"5","size_leaf_vector":"1"}},{"base_weights":[7.431572E-2,2.6932648E-1,-3.0038863E-1,5.6892466E-3,3.917324E-1,-3.6867216E-2,-6.3528046E-3,3.159673E-2,-3.2426696E-2,8.842637E-3,4.3711822E-2],"categories":[],"categories_nodes":[],"categories_segments":[],"categories_sizes":[],"default_left":[0,0,0,0,0,0,0,0,0,0,0],"id":120,"left_children":[1,3,5,7,9,-1,-1,-1,-1,-1,-1],"loss_changes":[1.0466021E0,2.9528773E-1,5.7390034E-2,5.0562334E-1,4.7815382E-2,0E0,0E0,0E0,0E0,0E0,0E0],"parents":[2147483647,0,0,1,1,2,2,3,3,4,4],"right_children":[2,4,6,8,10,-1,-1,-1,-1,-1,-1],"split_conditions":[4.44E1,1.75E1,1.89E1,